%YAML:1.0
---
opencv_ml_svm:
   format: 3
   svmType: C_SVC
   kernel:
      type: RBF
      gamma: 5.3830000000000000e+00
   C: 2.6699999999999999e+00
   term_criteria: { epsilon:1.1920928955078125e-07, iterations:1000 }
   var_count: 64
   class_count: 2
   class_labels: !!opencv-matrix
      rows: 2
      cols: 1
      dt: i
      data: [ 0, 1 ]
   sv_total: 150
   support_vectors:
      - [ 5.99802100e+03, 3.59208667e+03, 8.01913721e+03, 1.64899316e+04,
          2.61305977e+04, 1.56002344e+03, 1.30424756e+03, 7.69451172e+02,
          0., 7.83892090e+02, 4.73302148e+03, 3.21989502e+03,
          1.11571611e+04, 1.42905151e+02, 8.00494141e+02, 4.36580811e+02,
          1.79987480e+04, 6.16161230e+03, 3.62635425e+03, 8.52875586e+03,
          3.38361250e+04, 3.75225469e+04, 3.16792070e+04, 5.37397891e+04,
          4.93528438e+04, 4.43695625e+04, 2.39553184e+04, 2.79056680e+04,
          3.58271289e+04, 8.28167871e+03, 3.52798071e+03, 6.20844482e+03,
          8.30116641e+04, 4.59207266e+04, 1.30170781e+04, 2.80146113e+04,
          2.79552520e+04, 1.60628955e+04, 4.86416094e+04, 6.39256094e+04,
          3.67305039e+04, 1.07179102e+04, 1.23102070e+04, 1.86064125e+05,
          8.02573906e+04, 1.55126260e+04, 8.47075293e+03, 3.35827266e+04,
          5.25340875e+05, 3.26088125e+05, 2.94638594e+05, 6.76106250e+05,
          5.68815750e+05, 1.92087141e+05, 2.48762828e+05, 4.11275219e+05,
          4.04017438e+05, 2.53331859e+05, 2.88489531e+05, 6.16005188e+05,
          5.61990438e+05, 2.00323688e+05, 3.07458688e+05, 5.45106063e+05 ]
      - [ 2.30444458e+02, 7.50730515e+01, 7.71346680e+02, 7.32266479e+02,
          3.18457617e+03, 1.89545776e+03, 1.09788086e+03, 4.85033081e+02,
          2.37577972e+02, 1.37268204e+02, 1.56040741e+02, 1.79873642e+02,
          6.37265137e+02, 2.01418762e+02, 9.91993103e+01, 1.14135941e+02,
          4.66712354e+03, 3.55265479e+03, 3.43572510e+03, 4.79190625e+03,
          9.14223145e+03, 3.53462866e+03, 4.60934082e+03, 5.28748486e+03,
          5.73884619e+03, 5.54433936e+03, 4.92985303e+03, 5.63730811e+03,
          1.21083398e+04, 6.31435400e+03, 6.68350928e+03, 4.04545068e+03,
          9.82841016e+03, 5.96862158e+03, 7.54575635e+03, 9.14073535e+03,
          1.04226006e+04, 1.57388594e+04, 1.08262627e+04, 1.01077949e+04,
          1.15629658e+04, 7.06681201e+03, 9.06615332e+03, 6.31243262e+03,
          5.94529102e+03, 5.88267578e+03, 7.14256738e+03, 5.33709033e+03,
          7.52519141e+04, 6.33978633e+04, 6.63291797e+04, 7.30294922e+04,
          7.25528359e+04, 7.34302188e+04, 8.35795234e+04, 7.07242109e+04,
          7.67996094e+04, 6.83732109e+04, 5.95678320e+04, 6.52415156e+04,
          7.68378906e+04, 7.56609531e+04, 9.67522813e+04, 7.81950156e+04 ]
      - [ 2.99999981e+01, 0., 0., 0., 0., 0., 0., 0., 5.43245544e+01,
          3.11126957e+01, 1.21020523e+02, 3.12916595e+02, 1.79481299e+03,
          1.51695190e+02, 4.24264050e+00, 0., 3.85273047e+03,
          3.98497168e+03, 6.89331885e+03, 2.97531719e+04, 3.04487949e+04,
          9.48877539e+03, 4.61329980e+03, 3.21613989e+03, 1.75825928e+03,
          5.55029736e+03, 1.23952451e+04, 2.99623105e+04, 4.12418828e+04,
          1.10755430e+04, 4.92750293e+03, 3.61171631e+03, 1.27492603e+03,
          7.04321518e+01, 2.20187340e+01, 3.16227770e+00, 2.16435318e+02,
          0., 4.19301758e+01, 1.97201786e+01, 2.76044739e+02,
          1.93235168e+02, 7.30166138e+02, 2.75631519e+03, 4.15204609e+04,
          2.95875000e+03, 8.35738892e+02, 2.06254074e+02, 5.17432500e+04,
          66898., 1.13587766e+05, 3.62353844e+05, 3.65011188e+05,
          1.05098539e+05, 5.92274336e+04, 4.82454961e+04, 6.14672969e+04,
          7.73576172e+04, 1.51308766e+05, 4.23950656e+05, 4.44878313e+05,
          1.56949328e+05, 8.96944531e+04, 5.53996602e+04 ]
      - [ 0., 0., 0., 0., 0., 0., 0., 0., 0., 0., 0., 0., 0., 0., 0., 0.,
          5.62301289e+04, 4.14852070e+04, 1.44885293e+04, 3.58316040e+03,
          1.25032939e+04, 5.42988965e+03, 1.91917539e+04, 2.04421680e+04,
          9.69833008e+03, 4.27090918e+03, 3.47271362e+03, 7.02687549e+03,
          1.92547656e+04, 9.80118066e+03, 4.81231641e+04, 7.90235547e+04,
          0., 0., 0., 0., 0., 0., 0., 0., 0., 0., 0., 0., 0., 0., 0., 0.,
          2.20549203e+05, 2.64160688e+05, 4.35380188e+05, 5.34126813e+05,
          4.47421313e+05, 1.75859797e+05, 1.28872367e+05, 2.40371125e+05,
          4.31540688e+05, 2.32828891e+05, 3.86040563e+05, 5.16040625e+05,
          5.10485313e+05, 1.46494797e+05, 1.47095500e+05, 2.29259234e+05 ]
      - [ 8., 8.48528099e+00, 0., 3.16227770e+00, 7.16227770e+00, 0.,
          4.24264050e+00, 8.26129723e+00, 0., 5.07311821e+01,
          1.02904671e+02, 1.66782272e+02, 1.26151169e+02, 9.88375702e+01,
          5.66932755e+01, 3.16227770e+00, 3.86662109e+04, 3.26366133e+04,
          1.70444082e+04, 1.22031211e+04, 3.28921250e+04, 1.59175957e+04,
          3.08426875e+04, 7.62059766e+04, 86450., 5.16997734e+04,
          2.30598906e+04, 3.17436758e+04, 3.45193711e+04, 1.83547676e+04,
          2.35862891e+04, 2.61145977e+04, 1.19500859e+05, 6.95160498e+03,
          4.39862354e+03, 1.22127820e+03, 1.82277112e+03, 2.58348120e+03,
          8.15997852e+03, 7.83256328e+04, 1.39923484e+05, 9.37249023e+03,
          6.21186816e+03, 3.45714502e+03, 6.54373975e+03, 9.50490527e+03,
          1.16162949e+04, 6.68055625e+04, 3.57606531e+05, 1.95552547e+05,
          2.40584250e+05, 5.28264375e+05, 6.37300875e+05, 2.71182813e+05,
          2.57058969e+05, 3.92494156e+05, 4.07392719e+05, 2.12723047e+05,
          2.32584469e+05, 5.91629125e+05, 6.95419938e+05, 3.30228063e+05,
          2.81287656e+05, 3.74072281e+05 ]
      - [ 0., 0., 0., 0., 0., 0., 0., 0., 0., 0., 0., 0., 0., 0., 0., 0.,
          5.25807383e+04, 2.60727988e+04, 9.20359766e+03, 7.20582520e+03,
          1.31942920e+04, 3.23462520e+04, 3.34404883e+04, 1.15897102e+05,
          1.27475625e+05, 3.45847383e+04, 2.05016934e+04, 1.13146240e+04,
          1.24664063e+04, 1.64780957e+04, 2.67949941e+04, 4.46509648e+04,
          1.73603153e+01, 2.53874390e+02, 1.34854529e+03, 6.70523594e+04,
          2.78909707e+04, 2.15358887e+03, 6.80878113e+02, 1.35832458e+02,
          1.59585648e+02, 3.21640259e+03, 8.75185449e+03, 9.99376406e+04,
          8.81731719e+04, 1.15802715e+04, 2.00380798e+03, 2.69303802e+02,
          3.77720719e+05, 2.34044250e+05, 2.40853906e+05, 5.63885375e+05,
          5.07883063e+05, 5.06743594e+05, 3.60240719e+05, 3.52593125e+05,
          4.17450438e+05, 2.78535344e+05, 2.73612688e+05, 6.16019688e+05,
          5.94014813e+05, 4.37544750e+05, 5.22568750e+05, 5.06863094e+05 ]
      - [ 1.19999992e+02, 4.89363022e+01, 9.66426941e+02, 4.80771924e+03,
          7.29034241e+02, 0., 0., 0., 0., 0., 0., 0., 0., 0., 0., 0.,
          9.85601685e+02, 2.37705225e+03, 9.35705762e+03, 1.21463555e+04,
          6.50615137e+03, 7.53558838e+02, 6.50825500e+02, 6.33824158e+02,
          1.15566113e+03, 2.42247974e+03, 4.12702002e+03, 4.73360840e+03,
          3.85854565e+03, 6.49839661e+02, 5.68049133e+02, 3.72377899e+02,
          2.98472925e+03, 1.61987927e+03, 8.50868945e+03, 4.41247578e+04,
          5.16034570e+03, 4.71277313e+02, 2.09597427e+02, 5.21017380e+01,
          7.39586182e+02, 4.91682312e+02, 2.18471631e+03, 3.46359717e+03,
          2.14423022e+03, 9.22483276e+02, 5.35540649e+02, 3.56915222e+02,
          1.88923145e+04, 4.73700352e+04, 4.51602406e+05, 1.07334344e+05,
          4.17018555e+04, 9.98262109e+03, 9.62217285e+03, 6.05569287e+03,
          1.71161641e+04, 4.36716563e+04, 3.38572438e+05, 7.46993125e+04,
          3.36644258e+04, 8.02761426e+03, 8.91158301e+03, 6.16230615e+03 ]
      - [ 1.77428864e+02, 6.03564148e+02, 5.76535278e+02, 1.88127304e+02,
          2.21395615e+02, 8.94427204e+00, 2.55958767e+01, 9.48683357e+00,
          8., 2.15613976e+01, 0., 6.32455540e+00, 4.08824539e+01, 0.,
          1.13137074e+01, 2.40726852e+01, 2.58555430e+04, 1.58295625e+04,
          5.75617334e+03, 4.46064063e+03, 1.44938838e+04, 4.99803564e+03,
          2.41024297e+04, 9.37445938e+04, 1.21575578e+05, 2.47667676e+04,
          1.29920732e+04, 1.30759287e+04, 1.33640537e+04, 3.02382520e+03,
          4.73197998e+03, 1.97417734e+04, 4.77901660e+03, 4.99406934e+03,
          6.73057422e+03, 1.55803564e+04, 1.09808223e+04, 6.52043408e+03,
          5.50696973e+03, 3.46736914e+03, 3.60021094e+03, 3.55099292e+03,
          1.83258125e+04, 7.74581250e+04, 4.71651758e+04, 2.07037871e+04,
          6.33704053e+03, 2.77753735e+03, 2.82292938e+05, 1.86975594e+05,
          1.77832406e+05, 2.53565375e+05, 3.14956250e+05, 2.13275531e+05,
          2.26471578e+05, 3.12799875e+05, 3.30019531e+05, 2.57022078e+05,
          2.79870750e+05, 3.41131875e+05, 4.74229813e+05, 2.01874656e+05,
          2.48672531e+05, 3.42743500e+05 ]
      - [ 1.04345859e+04, 1.29548303e+03, 3.44340332e+02, 5.31380920e+02,
          3.49616089e+02, 1.33543793e+02, 2.05374588e+02, 4.98675391e+03,
          1.39192637e+04, 4.97116260e+03, 9.95520874e+02, 1.17429733e+02,
          2.91357117e+02, 4.65494957e+01, 7.72249146e+01, 1.21730981e+03,
          5.12821328e+04, 1.20742900e+04, 8.54592676e+03, 2.54210488e+04,
          2.35448398e+04, 3.42013696e+03, 9.27062598e+03, 4.28018477e+04,
          2.64562656e+04, 1.11434980e+04, 1.72133242e+04, 2.56975566e+04,
          3.25696094e+04, 8.79086035e+03, 1.57038809e+04, 5.69682578e+04,
          1.77608789e+04, 5.19507520e+03, 1.52585215e+04, 6.32588477e+04,
          1.38200771e+04, 4.46690137e+03, 2.98002686e+03, 1.14788672e+04,
          2.64660625e+04, 1.19611602e+04, 2.65770449e+04, 1.14455477e+05,
          3.50992617e+04, 3.30872119e+03, 2.52662842e+03, 7.58532178e+03,
          2.76586500e+05, 1.21142703e+05, 1.40229125e+05, 5.60351750e+05,
          5.19084969e+05, 2.25820281e+05, 2.57705797e+05, 3.54263469e+05,
          3.40422375e+05, 1.82659781e+05, 1.91004281e+05, 6.77799938e+05,
          5.18717375e+05, 1.92467469e+05, 2.29207719e+05, 3.19952500e+05 ]
      - [ 2.68191967e+01, 2.62300434e+01, 2.19544964e+01, 1.55520691e+02,
          1.83834607e+03, 2.37545386e+03, 1.51074097e+03, 5.25395569e+02,
          7.26261292e+02, 2.59210815e+01, 0., 9.48683262e+00,
          1.59999990e+01, 0., 1.75152664e+01, 0., 1.96302480e+04,
          1.03318672e+04, 1.18880059e+04, 8.61322266e+03, 1.71252031e+04,
          8.49652930e+03, 2.22647500e+04, 9.29462031e+04, 9.91395469e+04,
          3.02031836e+04, 1.22019590e+04, 1.44733252e+04, 2.01299590e+04,
          7.65581006e+03, 1.32794170e+04, 1.96929922e+04, 1.03973242e+04,
          1.04533818e+04, 1.76208906e+04, 2.70345254e+04, 3.75867305e+04,
          1.78213691e+04, 1.23281260e+04, 1.45424883e+04, 1.69061426e+04,
          1.08548789e+04, 1.84616055e+04, 9.64508496e+03, 6.34327393e+03,
          2.63035107e+03, 1.97010437e+03, 4.41059912e+03, 2.09344359e+05,
          1.46788469e+05, 1.48978344e+05, 2.39734125e+05, 5.32204250e+05,
          3.15905125e+05, 2.75763281e+05, 3.03088938e+05, 2.83725281e+05,
          1.88341781e+05, 1.74322531e+05, 4.14570188e+05, 5.06023719e+05,
          263729., 2.43489594e+05, 2.72541281e+05 ]
      - [ 794., 5.34734924e+02, 5.88978149e+02, 4.11441162e+03,
          1.25681943e+04, 4.17711945e+02, 9.39281158e+01, 0., 910.,
          2.30217266e+01, 3.71731384e+02, 2.30004663e+03, 2.12663223e+04,
          1.02798242e+03, 1.41421347e+01, 7.09854584e+01, 1.88103320e+04,
          5.33288574e+03, 7.36465137e+03, 2.45760176e+04, 4.55235664e+04,
          1.33952500e+04, 9.48055469e+03, 1.35769932e+04, 1.73385156e+04,
          9.80691895e+03, 5.41593652e+03, 2.01966250e+04, 4.91074688e+04,
          8.74873438e+03, 9.93053223e+03, 1.11146738e+04, 3.11187578e+04,
          1.23475234e+04, 1.95236914e+04, 5.13150391e+04, 1.14594984e+05,
          2.98281680e+04, 1.62660957e+04, 2.52200293e+04, 2.31222246e+04,
          7.35031348e+03, 1.61194033e+04, 4.60311016e+04, 1.43298766e+05,
          2.10690098e+04, 1.13532266e+04, 1.22978887e+04, 2.97225469e+05,
          1.65476328e+05, 1.73623047e+05, 4.16249781e+05, 5.38858813e+05,
          3.36805094e+05, 2.43658031e+05, 3.44022813e+05, 2.88049250e+05,
          1.74139094e+05, 166096., 4.26796375e+05, 6.21818563e+05,
          3.13092906e+05, 2.28494500e+05, 2.94705156e+05 ]
      - [ 1.31920032e+03, 4.03437805e+02, 4.60470367e+02, 7.49579529e+02,
          7.12663452e+02, 4.50039856e+02, 1.44142059e+02, 5.19012817e+02,
          2.96989697e+03, 7.78498962e+02, 2.57811694e+03, 1.99096033e+03,
          2.26677661e+03, 1.70710181e+03, 6.42256531e+02, 3.24572510e+02,
          3.43663242e+04, 1.80943145e+04, 1.04255830e+04, 1.04145586e+04,
          2.26209043e+04, 1.66062266e+04, 9.22706250e+03, 2.30347461e+04,
          2.87707012e+04, 1.37139248e+04, 1.16072744e+04, 9.47537207e+03,
          1.13679531e+04, 2.47718848e+04, 1.32343701e+04, 2.52448398e+04,
          2.29219277e+04, 3.19739307e+03, 2.82246924e+03, 5.80619824e+03,
          7.84665723e+03, 6.99078711e+03, 7.07659814e+03, 2.34817617e+04,
          2.02745469e+04, 4.61214111e+03, 4.40780615e+03, 7.40918604e+03,
          7.82788135e+03, 6.07644775e+03, 8.06713037e+03, 1.18413438e+04,
          2.42481781e+05, 1.34170313e+05, 1.27833313e+05, 4.09896969e+05,
          4.03559188e+05, 1.31548203e+05, 1.36768156e+05, 2.23295531e+05,
          2.77474719e+05, 1.42192922e+05, 1.52968109e+05, 4.14779875e+05,
          3.84777406e+05, 9.24268047e+04, 1.22467391e+05, 2.67380906e+05 ]
      - [ 4.12305817e+02, 1.03879242e+02, 1.55354248e+02, 1.34739426e+02,
          3.21910065e+02, 2.06578274e+01, 5.17520081e+02, 3.72533350e+03,
          1.14518457e+04, 4.11742236e+03, 3.07173706e+02, 1.50225677e+02,
          1.31199127e+02, 2.84672241e+02, 1.71468765e+02, 1.33956232e+01,
          3.57470078e+04, 1.57966582e+04, 1.19722793e+04, 2.83814805e+04,
          2.50343066e+04, 5.11108740e+03, 5.37010205e+03, 1.44098027e+04,
          1.34742334e+04, 1.40564746e+04, 2.12824609e+04, 3.77830547e+04,
          3.36322539e+04, 8.23537695e+03, 1.00208945e+04, 4.61353359e+04,
          2.29956563e+04, 6.94730615e+03, 1.53066963e+04, 6.11211953e+04,
          1.55004453e+04, 4.79890088e+03, 4.00388794e+03, 1.26182441e+04,
          3.22303965e+04, 9.82094043e+03, 2.57877891e+04, 1.18493766e+05,
          3.43349727e+04, 3.05252563e+03, 2.63251196e+03, 1.37486094e+04,
          2.90200438e+05, 1.17348641e+05, 1.43120594e+05, 5.35553750e+05,
          4.89734688e+05, 2.30164781e+05, 2.64586250e+05, 3.44656656e+05,
          3.46411094e+05, 1.73894828e+05, 1.91529750e+05, 6.21832625e+05,
          5.12047469e+05, 1.84181859e+05, 2.26502313e+05, 3.26816719e+05 ]
      - [ 5.70101709e+03, 2.36532861e+03, 1.80701758e+03, 1.00421075e+03,
          1.32070178e+03, 2.34525528e+02, 1.15700232e+03, 1.73422998e+03,
          1.73697107e+03, 1.07566150e+03, 1.99404617e+02, 6.43226013e+02,
          1.27609570e+03, 5.68085449e+02, 2.19111206e+03, 1.04410381e+04,
          4.11601953e+04, 3.26875938e+04, 1.87910703e+04, 1.81218672e+04,
          2.00890469e+04, 8.80629004e+03, 1.32677998e+04, 4.24722617e+04,
          2.63921094e+04, 8.09438916e+03, 7.79029150e+03, 1.20432109e+04,
          2.03345273e+04, 2.66895313e+04, 2.17006074e+04, 2.99420195e+04,
          1.06157133e+05, 4.59420850e+03, 5.94287744e+03, 7.78762842e+03,
          1.93640742e+04, 5.50981738e+03, 9.14872754e+03, 1.01801891e+05,
          6.09161250e+04, 5.81691846e+03, 2.92173926e+03, 4.27109277e+03,
          3.94912354e+03, 1.38821472e+03, 2.74777563e+03, 4.48490430e+04,
          2.18139875e+05, 1.33476703e+05, 1.68021156e+05, 2.79255031e+05,
          3.12420188e+05, 456976., 2.44127406e+05, 2.77191469e+05,
          2.44692391e+05, 1.54316422e+05, 2.04500172e+05, 2.27597406e+05,
          2.12310078e+05, 4.05860438e+05, 1.89595781e+05, 2.43648250e+05 ]
      - [ 2.26153223e+03, 1.17265747e+03, 1.18593787e+03, 6.89304138e+02,
          2.82073547e+02, 2.42074337e+01, 4.55169678e+02, 8.85727112e+02,
          1.57283167e+03, 9.07831787e+02, 9.69309387e+02, 6.89471680e+02,
          1.69054614e+03, 4.28838531e+02, 8.69749756e+02, 7.45776611e+02,
          1.02746602e+04, 7.58701953e+03, 8.14694629e+03, 6.47779150e+03,
          1.38525781e+04, 8.77694336e+03, 9.60142285e+03, 7.16518799e+03,
          7.74023291e+03, 6.17548291e+03, 6.19625293e+03, 8.83434180e+03,
          1.60395625e+04, 1.03477715e+04, 7.14130420e+03, 7.26344092e+03,
          3.85052539e+04, 3.37930859e+04, 2.13114922e+04, 1.87608262e+04,
          1.37426240e+04, 1.67414785e+04, 2.71557441e+04, 1.60193213e+04,
          2.82059160e+04, 2.25081309e+04, 1.03089297e+04, 6.98305371e+03,
          6.11790332e+03, 6.57697852e+03, 7.57752002e+03, 1.46185859e+04,
          3.55741750e+05, 1.65375516e+05, 1.13457969e+05, 1.16907109e+05,
          1.50353016e+05, 1.26135156e+05, 1.69878453e+05, 3.22987875e+05,
          2.86505813e+05, 1.43936828e+05, 1.14116164e+05, 1.08104578e+05,
          1.41538781e+05, 1.11074977e+05, 1.94057734e+05, 3.72124375e+05 ]
      - [ 0., 0., 0., 0., 0., 0., 0., 0., 0., 0., 0., 0., 0., 0., 0., 0.,
          7.56213516e+04, 2.08877109e+04, 1.45627119e+04, 1.13812317e+03,
          3.27903418e+03, 7.74209213e+01, 1.01942181e+03, 6.47611008e+01,
          9.27829773e+02, 1.07643433e+02, 5.05763245e+02, 7.26481506e+02,
          1.43233606e+03, 4.72206396e+03, 2.11087129e+04, 6.63523594e+04,
          2.26818203e+04, 1.05791592e+04, 3.29854961e+04, 8.70885547e+04,
          6.11869961e+04, 3.71438008e+04, 1.07204492e+04, 1.66857285e+04,
          1.60749414e+04, 5.34664209e+03, 7.06776855e+03, 2.00903145e+04,
          2.93155195e+04, 7.54662988e+03, 2.49809326e+03, 1.17458311e+04,
          5.22729125e+05, 2.87299375e+05, 3.83329094e+05, 5.02949188e+05,
          527610., 4.04501656e+05, 3.14438219e+05, 5.77497375e+05,
          5.13906688e+05, 2.48306438e+05, 3.26201813e+05, 5.80453563e+05,
          5.54126938e+05, 3.73182656e+05, 2.62917969e+05, 3.83935375e+05 ]
      - [ 4.18578369e+02, 5.86296692e+02, 1.26914819e+03, 7.97932861e+02,
          6.78113861e+01, 2.19544964e+01, 1.13137074e+01, 2.08823204e+01,
          4.28847733e+01, 4.55263748e+01, 6.76196442e+01, 7.89839249e+01,
          1.49194177e+03, 2.35420135e+02, 1.62929977e+02, 3.27325684e+02,
          1.90757117e+03, 3.15389502e+03, 4.01511694e+03, 2.89012871e+04,
          2.25344941e+04, 8.37810645e+03, 2.94584204e+03, 5.35008789e+03,
          6.98939697e+03, 2.43691040e+03, 5.73233398e+03, 3.62292461e+04,
          4.73321641e+04, 9.39615527e+03, 5.48134033e+03, 2.84340576e+03,
          2.43208447e+03, 2.26438324e+02, 9.35570679e+01, 3.00825470e+02,
          8.84565918e+02, 5.50656921e+02, 3.36713470e+02, 4.79487518e+02,
          3.50107422e+03, 3.93599512e+03, 8.66935156e+03, 2.28590820e+04,
          2.87925039e+04, 1.00051592e+04, 2.27059082e+03, 5.48579956e+02,
          5.16652461e+04, 5.45324453e+04, 7.85621719e+04, 1.87877766e+05,
          2.32758891e+05, 6.81815156e+04, 5.43611563e+04, 4.21288555e+04,
          5.96471133e+04, 9.16864844e+04, 1.51870891e+05, 3.35964313e+05,
          3.76432688e+05, 1.29852313e+05, 8.51146250e+04, 5.99102148e+04 ]
      - [ 5.10450537e+03, 7.91717224e+02, 1.80826294e+03, 1.45494128e+03,
          2.11002881e+03, 4.51757324e+03, 7.40995850e+02, 4.60156543e+03,
          4.66927686e+03, 3.11120215e+03, 1.23908213e+04, 1.87473906e+04,
          1.09781299e+04, 2.16195923e+03, 1.16735974e+03, 3.11718530e+03,
          4.60075430e+04, 1.36640898e+04, 8.00476025e+03, 2.26758008e+04,
          3.15865801e+04, 1.77795586e+04, 2.87021133e+04, 7.13371484e+04,
          6.95704141e+04, 2.35625078e+04, 1.11926133e+04, 1.90004375e+04,
          2.40624824e+04, 1.45331836e+04, 8.41468848e+03, 2.84820332e+04,
          9.64447891e+04, 2.48698418e+04, 2.33817422e+04, 5.25840156e+04,
          5.84925664e+04, 2.68368984e+04, 2.62112539e+04, 6.70308906e+04,
          5.36338672e+04, 2.92975781e+04, 5.12616797e+04, 7.98380859e+04,
          9.71930703e+04, 2.59646465e+04, 1.39455830e+04, 2.93432344e+04,
          5.34811438e+05, 3.14012219e+05, 3.06396594e+05, 7.43305625e+05,
          7.05416813e+05, 2.78862188e+05, 3.39752594e+05, 5.67607313e+05,
          4.80057656e+05, 290198., 3.08038531e+05, 7.40403250e+05,
          7.75700750e+05, 2.52972938e+05, 2.36729406e+05, 5.73923250e+05 ]
      - [ 4., 2.82842693e+01, 0., 1.52970581e+01, 4.37366852e+02,
          4.08847382e+02, 1.19688965e+03, 2.06051001e+03, 2.07100220e+03,
          5.65925598e+02, 5.29589043e+01, 3.14977398e+01, 1.48142136e+02,
          1.78885441e+01, 1.27279205e+01, 0., 1.27197979e+04,
          1.11748711e+04, 4.74976172e+03, 9.34612793e+03, 2.94501211e+04,
          1.24554111e+04, 1.18542070e+04, 8.16569688e+04, 6.76818828e+04,
          1.86450098e+04, 1.43350996e+04, 1.95816953e+04, 2.68304512e+04,
          1.02602881e+04, 7.67956543e+03, 9.61159570e+03, 4.89655977e+04,
          7.15735254e+03, 7.34004004e+03, 4.15669922e+04, 4.60620313e+04,
          1.71205879e+04, 1.71043809e+04, 7.18608672e+04, 4.85019180e+04,
          9.92011426e+03, 4.41659814e+03, 4.20439102e+04, 5.17243008e+04,
          9.38479980e+03, 7.65134961e+03, 6.34226133e+04, 3.69095063e+05,
          1.51691891e+05, 1.57988297e+05, 3.82778906e+05, 5.16271219e+05,
          3.59850375e+05, 2.41095703e+05, 5.07529313e+05, 4.23829500e+05,
          2.07576344e+05, 1.65336016e+05, 4.99879125e+05, 4.79117438e+05,
          3.73713125e+05, 3.33754906e+05, 5.00794875e+05 ]
      - [ 0., 0., 0., 0., 0., 0., 0., 0., 0., 0., 0., 0., 0., 0., 0., 0.,
          1.73336211e+04, 4.68698145e+03, 3.46247412e+03, 1.89259338e+03,
          1.30115930e+03, 1.19334541e+04, 1.84839180e+04, 1.04372242e+05,
          1.39314922e+05, 1.69767520e+04, 6.90646777e+03, 6.30378955e+03,
          2.37806812e+03, 6.56042188e+03, 5.47889893e+03, 1.95752129e+04,
          0., 0., 0., 0., 0., 0., 0., 0., 9.48683357e+00, 5.09116859e+01,
          2.48413025e+02, 1.16943027e+04, 1.28347305e+04, 2.47179169e+02,
          5.51543274e+01, 9.48683357e+00, 2.98535844e+05, 1.58467609e+05,
          2.24382781e+05, 8.44395563e+05, 7.15026375e+05, 4.26024500e+05,
          2.97798781e+05, 2.65261875e+05, 3.18737625e+05, 2.56183594e+05,
          1.86270094e+05, 6.10033813e+05, 9.76625500e+05, 4.13696281e+05,
          3.93883563e+05, 4.30560719e+05 ]
      - [ 7.66883850e+02, 1.00346809e+02, 1.10397705e+02, 8.49908295e+01,
          3.75712891e+02, 1.52378708e+02, 2.04729431e+02, 9.56091995e+01,
          2.10031418e+02, 4.75870247e+01, 2.96128235e+02, 1.25651001e+03,
          1.43488269e+03, 7.62976379e+02, 5.82498962e+02, 3.74544525e+02,
          4.06116992e+03, 6.85700098e+03, 9.42868359e+03, 1.43693164e+04,
          3.45793633e+04, 1.51655586e+04, 6.44475488e+03, 2.66542676e+03,
          1.65500867e+03, 1.78355054e+03, 7.39281299e+03, 2.30867305e+04,
          4.39047188e+04, 2.90710527e+04, 8.18493994e+03, 6.12701465e+03,
          4.99569092e+03, 3.39443945e+03, 2.74592480e+03, 2.64722217e+03,
          3.18601465e+03, 2.58331909e+03, 2.86817261e+03, 3.11453955e+03,
          4.18318652e+03, 2.49694141e+03, 1.22174426e+03, 2.16668237e+03,
          3.08862891e+03, 2.19244263e+03, 3.31973853e+03, 2.52045020e+03,
          6.98056250e+04, 7.71670547e+04, 1.01361367e+05, 1.76722578e+05,
          3.02304844e+05, 1.48166094e+05, 7.68024531e+04, 6.10698086e+04,
          7.35904297e+04, 7.87626641e+04, 1.31716922e+05, 2.68372125e+05,
          4.08878250e+05, 2.02703094e+05, 9.80393516e+04, 6.99920781e+04 ]
      - [ 3.53623962e+02, 8.56332397e+01, 4.25436584e+02, 2.84579712e+03,
          3.51142236e+03, 1.36867969e+03, 2.07313324e+02, 3.08698151e+02,
          4.79357941e+02, 3.43232117e+02, 2.47795044e+02, 6.91837769e+02,
          1.05255200e+03, 7.33246765e+02, 3.47202515e+02, 1.44523941e+02,
          3.20366875e+04, 1.72676445e+04, 1.17969238e+04, 2.16460957e+04,
          3.69493008e+04, 2.06294199e+04, 2.51653828e+04, 4.79315000e+04,
          4.16724102e+04, 2.56085352e+04, 1.53380117e+04, 2.43369063e+04,
          3.69265156e+04, 1.84603496e+04, 1.03473398e+04, 2.47622539e+04,
          4.53577930e+04, 9.10475391e+03, 1.22479316e+04, 2.16770195e+04,
          1.64432715e+04, 8.02306934e+03, 8.22503027e+03, 4.07706016e+04,
          6.15275234e+04, 1.02810371e+04, 1.05933848e+04, 4.64481680e+04,
          1.89582734e+04, 4.98165820e+03, 5.50412744e+03, 4.20685547e+04,
          3.72960156e+05, 2.37351313e+05, 1.93252141e+05, 4.11581875e+05,
          5.49908063e+05, 4.30646438e+05, 3.37472844e+05, 364425.,
          4.34362531e+05, 2.33391875e+05, 2.19870688e+05, 4.09935625e+05,
          5.43310313e+05, 3.76455938e+05, 3.28956656e+05, 4.14039281e+05 ]
      - [ 3.06981934e+03, 2.72284082e+03, 3.29725647e+02, 3.16227770e+00,
          1.91999985e+02, 0., 0., 3.65371735e+02, 9.36352832e+03,
          5.41769971e+03, 3.54827783e+03, 3.64994360e+03, 8.01327246e+03,
          4.83689746e+03, 1.07425205e+04, 3.56353027e+03, 5.57765742e+04,
          2.78286055e+04, 1.42752168e+04, 8.69751953e+03, 3.59014688e+04,
          1.76884707e+04, 2.73848105e+04, 4.82894570e+04, 6.31049570e+04,
          1.99042363e+04, 1.29519766e+04, 9.72882520e+03, 2.80785957e+04,
          2.41197676e+04, 2.41073691e+04, 5.17754375e+04, 1.11110898e+04,
          1.56697485e+03, 9.38590271e+02, 1.44381289e+04, 1.57743535e+04,
          1.23226111e+03, 2.12184497e+03, 8.64822559e+03, 1.08221143e+04,
          5.89346289e+03, 7.55501514e+03, 3.82785703e+04, 6.05776758e+04,
          9.94464355e+03, 1.39608770e+04, 8.29246582e+03, 2.70511156e+05,
          1.35414703e+05, 1.25727523e+05, 3.18173656e+05, 3.62833188e+05,
          2.24253406e+05, 1.98246922e+05, 2.66957188e+05, 2.82717500e+05,
          1.33891734e+05, 1.30707719e+05, 4.55634344e+05, 4.12973469e+05,
          2.03124641e+05, 2.08300844e+05, 3.00730500e+05 ]
      - [ 2.06328052e+03, 9.15699402e+02, 2.98627625e+02, 1.10737537e+03,
          1.30579468e+03, 1.10485071e+03, 4.76126648e+02, 1.93704346e+02,
          3.50083557e+02, 9.40907593e+02, 7.54158691e+02, 1.29484595e+03,
          1.08649878e+03, 1.41630444e+03, 1.73941187e+03, 1.38466650e+03,
          2.03056992e+04, 2.55078184e+04, 2.06727363e+04, 2.01022832e+04,
          2.88176055e+04, 1.73860059e+04, 1.47659346e+04, 2.38600293e+04,
          1.73454570e+04, 1.44040234e+04, 1.43020088e+04, 1.17236250e+04,
          2.66132617e+04, 2.15111367e+04, 1.60913193e+04, 1.39198350e+04,
          1.53365322e+04, 9.18450879e+03, 7.46622949e+03, 7.12053809e+03,
          8.60391016e+03, 4.66038916e+03, 6.44196387e+03, 6.83030029e+03,
          1.52409951e+04, 1.09091494e+04, 1.31753105e+04, 1.33714609e+04,
          1.83002520e+04, 1.17036143e+04, 9.34384082e+03, 5.79897803e+03,
          2.72517313e+05, 255449., 1.53142438e+05, 4.67454938e+05,
          1.31877988e+06, 2.18720500e+05, 1.41230906e+05, 2.62287156e+05,
          2.56710016e+05, 1.78492500e+05, 1.76385625e+05, 4.48063969e+05,
          1.15120975e+06, 1.90169703e+05, 1.25807281e+05, 2.51693344e+05 ]
      - [ 5.39265930e+02, 1.43468445e+03, 1.02162531e+03, 9.91567871e+02,
          2.01927930e+03, 1.08148828e+03, 1.10850220e+03, 1.25561853e+03,
          1.22551331e+03, 7.31122925e+02, 2.13812286e+02, 1.35531509e+02,
          4.08708405e+02, 1.27163826e+02, 3.55472748e+02, 5.75963440e+01,
          4.16872803e+03, 2.29320742e+04, 2.28068438e+04, 1.43745332e+04,
          3.69193203e+04, 8.02562793e+03, 1.05074268e+04, 5.96556016e+04,
          7.96494922e+04, 2.14959082e+04, 1.22692383e+04, 2.33113926e+04,
          2.63712402e+04, 2.17402173e+03, 3.52761084e+03, 4.50141797e+03,
          4.69759805e+04, 9.55545410e+03, 1.31983486e+04, 7.66769297e+04,
          4.94296602e+04, 1.19157227e+04, 9.50190332e+03, 2.72618164e+04,
          4.18086172e+04, 9.24264453e+03, 7.48383154e+03, 1.58356582e+04,
          2.37695645e+04, 1.36639053e+04, 1.63323555e+04, 4.08086992e+04,
          2.56872219e+05, 1.37889453e+05, 1.49601828e+05, 6.49265250e+05,
          6.77582313e+05, 1.73581234e+05, 1.23577359e+05, 2.23102719e+05,
          2.23458875e+05, 1.55959750e+05, 1.62749063e+05, 8.34602875e+05,
          7.76342938e+05, 1.67562313e+05, 1.61086219e+05, 2.22839141e+05 ]
      - [ 1.03947334e+02, 2.54558430e+01, 0., 0., 12., 0.,
          5.22886581e+01, 4.74341660e+01, 1.99947327e+02, 3.39411240e+01,
          0., 0., 48., 0., 8.48528099e+00, 2.84604988e+01,
          6.86501514e+03, 2.75391626e+03, 3.76994922e+03, 5.90114453e+03,
          5.07064766e+04, 1.12953633e+04, 2.19622383e+04, 5.21337305e+04,
          3.32696094e+04, 2.06448691e+04, 3.42543594e+04, 1.65555703e+04,
          8.18726221e+03, 8.73878125e+03, 1.98963164e+04, 1.51749482e+04,
          1.02880115e+03, 4.46462891e+02, 9.39148560e+01, 7.08869019e+01,
          1.73244385e+02, 8.25425644e+01, 8.02376404e+02, 2.03514880e+03,
          7.69128857e+03, 1.87766833e+03, 4.24892944e+02, 5.41393616e+02,
          6.87997864e+02, 2.25837372e+02, 7.33458862e+02, 2.41194824e+02,
          4.39220781e+05, 3.28396531e+05, 3.22944469e+05, 6.32070563e+05,
          5.83809938e+05, 1.62186703e+05, 1.84124031e+05, 3.24477625e+05,
          4.32608625e+05, 3.41127469e+05, 2.62470375e+05, 5.92685875e+05,
          7.66879938e+05, 1.35669609e+05, 2.08641438e+05, 3.61551250e+05 ]
      - [ 0., 0., 0., 0., 6.54237305e+02, 1.96164343e+03, 5.88962549e+03,
          3.42052574e+01, 626., 0., 0., 0., 0., 0., 0., 0.,
          8.86543555e+03, 2.78275391e+03, 1.99747046e+03, 4.36393408e+03,
          3.73762012e+03, 4.31032178e+03, 9.71850098e+03, 1.21487422e+04,
          1.01617646e+04, 2.40207495e+03, 5.00188135e+03, 7.80198340e+03,
          1.17658447e+04, 1.98250605e+04, 7.78935400e+03, 9.08309863e+03,
          3.05070343e+02, 2.16786118e+02, 6.39612617e+01, 3.57375549e+02,
          2.17163281e+03, 5.47554102e+03, 8.79314160e+03, 9.59704285e+02,
          1.76778503e+03, 5.13725952e+02, 1.44300766e+02, 1.58684174e+02,
          3.98672394e+02, 2.50996475e+01, 2.47660950e+02, 1.10017754e+02,
          1.62862109e+05, 2.25409953e+05, 3.67985188e+05, 6.32350313e+05,
          3.60105219e+05, 1.85710922e+05, 1.65576984e+05, 1.20898547e+05,
          1.72548688e+05, 2.64811219e+05, 4.40856125e+05, 5.90968875e+05,
          292569., 1.54962359e+05, 1.62414406e+05, 1.59137953e+05 ]
      - [ 2.84268921e+02, 8.01171799e+01, 3.19904694e+02, 4.36806602e+01,
          1.08201973e+02, 1.95496597e+02, 2.87566711e+02, 1.60393173e+02,
          1.08598364e+03, 8.54463318e+02, 8.33903015e+02, 5.14249939e+02,
          1.08208301e+03, 5.17439636e+02, 3.12106110e+02, 3.93968964e+02,
          1.00182734e+04, 1.10539688e+04, 1.21165947e+04, 1.37186055e+04,
          2.81166797e+04, 1.50545625e+04, 8.40084668e+03, 5.36530322e+03,
          7.73593164e+03, 5.81601563e+03, 1.01623516e+04, 1.42575078e+04,
          2.09182617e+04, 1.18306631e+04, 9.65379297e+03, 9.07248047e+03,
          4.89214453e+04, 2.29227168e+04, 1.62316563e+04, 2.31534297e+04,
          2.34842070e+04, 2.06882207e+04, 3.31244297e+04, 4.06935156e+04,
          5.50593086e+04, 9.57428711e+03, 1.03557822e+04, 1.43674912e+04,
          2.24211836e+04, 3.61810898e+04, 2.96263320e+04, 3.19121270e+04,
          1.43476313e+05, 1.02662539e+05, 1.21262117e+05, 2.24469391e+05,
          2.63042250e+05, 2.01873844e+05, 1.28859531e+05, 1.27366430e+05,
          1.38869625e+05, 8.10366953e+04, 1.13868516e+05, 2.03348484e+05,
          3.60022438e+05, 2.40825703e+05, 1.41260469e+05, 9.01980313e+04 ]
      - [ 7.49172852e+03, 4.77369690e+02, 0., 0., 1168., 3.05920807e+02,
          1.75821838e+03, 6.63879834e+03, 7.82103076e+03, 2.49493317e+02,
          3.08868885e+01, 0., 6.13122131e+02, 2.16648468e+02,
          5.25509987e+01, 1.03263984e+04, 1.55638789e+04, 6.48173047e+03,
          7.74537891e+03, 1.03711328e+04, 3.09306445e+04, 2.15602773e+04,
          2.06712148e+04, 9.43821328e+04, 1.33268031e+05, 1.97283984e+04,
          1.16151563e+04, 1.07760615e+04, 3.02615781e+04, 1.68135566e+04,
          8.02340723e+03, 3.15619141e+04, 4.38969258e+04, 1.48665117e+04,
          1.24683906e+04, 3.37080469e+04, 4.14720547e+04, 1.16734844e+04,
          1.39043770e+04, 5.81602188e+04, 7.47017969e+04, 1.23458447e+04,
          8.94244531e+03, 3.09204570e+04, 2.94765742e+04, 1.27880186e+04,
          1.14843457e+04, 5.47197422e+04, 2.57911063e+05, 1.74905250e+05,
          2.03936969e+05, 6.05642125e+05, 7.34793813e+05, 3.42402844e+05,
          2.60643625e+05, 2.89879750e+05, 2.65758875e+05, 1.61053016e+05,
          1.98673563e+05, 4.66074688e+05, 639688., 3.68860969e+05,
          3.37778219e+05, 3.50461719e+05 ]
      - [ 1.95548328e+03, 2.68707959e+03, 4.36572559e+03, 5.80218848e+03,
          6.82897998e+03, 1.98045624e+02, 20., 2.26206558e+02,
          1.10614075e+03, 1.25326416e+03, 2.40165039e+03, 6.06620728e+02,
          4.05170923e+03, 1.66985449e+03, 1.46197522e+03, 6.66345032e+02,
          1.06614587e+03, 1.01392157e+03, 1.91483960e+03, 5.27922363e+03,
          2.60446563e+04, 9.38337891e+03, 7.81788574e+03, 5.86651318e+03,
          1.14862500e+04, 5.34788525e+03, 9.06105273e+03, 1.27924287e+04,
          1.13356895e+04, 1.26963025e+03, 6.40829041e+02, 4.57029755e+02,
          4.87010664e+04, 1.34357627e+04, 7.67472266e+03, 1.47608711e+04,
          1.29098740e+04, 7.05426904e+03, 4.48681494e+03, 1.98736855e+04,
          5.63328320e+04, 7.73216895e+03, 4.97612988e+03, 1.88829492e+04,
          1.20183133e+05, 9.06647754e+03, 8.22856445e+03, 1.90567813e+04,
          3.89604156e+05, 2.03790531e+05, 2.01754281e+05, 5.71358688e+05,
          8.32346500e+05, 3.40231406e+05, 2.62019219e+05, 2.52639813e+05,
          3.20046688e+05, 2.32261594e+05, 2.37315156e+05, 6.54699250e+05,
          6.73478375e+05, 2.84089281e+05, 1.96661844e+05, 2.56456281e+05 ]
      - [ 5.74072754e+03, 3.48950391e+03, 2.28900391e+03, 9.14505371e+03,
          1.29190420e+04, 2.40805762e+03, 1.80493640e+03, 2.10437793e+03,
          7.93984717e+03, 1.96352734e+03, 4.02948389e+03, 1.46586240e+04,
          6.83170703e+03, 2.23285156e+03, 2.16320557e+03, 5.00121973e+03,
          3.59768994e+03, 4.60129199e+03, 4.19237305e+03, 1.02792705e+04,
          6.41237266e+04, 2.55705137e+04, 9.41278711e+03, 2.90717920e+03,
          3.24867529e+03, 3.00369531e+03, 4.18647949e+03, 1.53585752e+04,
          5.05432227e+04, 1.58766924e+04, 5.00370459e+03, 2.97449341e+03,
          2.20144238e+04, 1.19070283e+04, 1.67331367e+04, 3.02077383e+04,
          4.41376836e+04, 2.27283691e+04, 1.48260557e+04, 2.24183359e+04,
          3.79052891e+04, 1.41184443e+04, 1.08039766e+04, 4.19247109e+04,
          1.72313438e+04, 1.13794346e+04, 1.18910449e+04, 2.20090371e+04,
          8.82073672e+04, 5.12419414e+04, 5.88327656e+04, 1.40876125e+05,
          5.18840219e+05, 2.49084234e+05, 1.26832648e+05, 1.03209664e+05,
          9.67786797e+04, 6.57100625e+04, 6.69466953e+04, 1.29333492e+05,
          4.73142594e+05, 1.17419352e+05, 7.29070234e+04, 7.15403906e+04 ]
      - [ 1.61493079e+03, 5.45102295e+02, 2.42420532e+03, 4.73119873e+03,
          1.75743750e+03, 2.94531104e+03, 9.32126343e+02, 7.50765442e+02,
          2.95995947e+03, 1.43440100e+03, 2.36820630e+03, 3.11883252e+03,
          5.12343750e+03, 2.40573535e+03, 1.06342114e+03, 9.26592834e+02,
          1.69239238e+04, 1.50647266e+04, 2.33534102e+04, 3.24804238e+04,
          5.20688477e+04, 3.04945273e+04, 3.03285273e+04, 8.45275313e+04,
          5.27165508e+04, 1.89087148e+04, 2.26554258e+04, 4.15203359e+04,
          2.89925137e+04, 1.77051484e+04, 1.59571445e+04, 2.16158789e+04,
          3.64110820e+04, 2.06627383e+04, 1.85975391e+04, 1.58745771e+04,
          1.61632627e+04, 1.51212041e+04, 1.94267266e+04, 3.26874063e+04,
          3.87179297e+04, 1.81849629e+04, 1.64541875e+04, 1.38947656e+04,
          1.82987891e+04, 1.50657939e+04, 2.78738105e+04, 2.45542402e+04,
          3.72328563e+05, 3.07713500e+05, 2.58579422e+05, 8.83615563e+05,
          7.66062125e+05, 1.67304156e+05, 1.84198563e+05, 2.95626750e+05,
          3.58897906e+05, 2.53681766e+05, 2.14780609e+05, 6.74291250e+05,
          616464., 1.42173469e+05, 1.77021219e+05, 3.14596406e+05 ]
      - [ 1.54261816e+03, 7.44767944e+02, 2.96178070e+02, 4.70765808e+02,
          5.63519897e+02, 4.20988586e+02, 5.40114441e+02, 1.54437256e+03,
          7.12429199e+03, 7.48259277e+03, 3.63497974e+03, 8.23489258e+02,
          1.81584216e+03, 1.45125146e+03, 8.02482239e+02, 7.97071594e+02,
          1.23982646e+04, 1.21099277e+04, 8.77937109e+03, 1.69165645e+04,
          2.23728066e+04, 8.64409570e+03, 8.88803711e+03, 1.00984580e+04,
          1.27792324e+04, 8.12443115e+03, 1.02137471e+04, 1.93787949e+04,
          2.89294238e+04, 7.35059814e+03, 9.58087207e+03, 1.00502607e+04,
          3.33190547e+04, 9.51657324e+03, 6.61004883e+03, 8.90320020e+03,
          8.30212695e+03, 8.20886035e+03, 1.17558545e+04, 1.92462363e+04,
          3.18914746e+04, 1.67091895e+04, 1.43295254e+04, 9.17448535e+03,
          1.04990010e+04, 1.49404229e+04, 2.31287324e+04, 2.76235859e+04,
          3.00465031e+05, 1.82853281e+05, 1.62138344e+05, 4.44843125e+05,
          3.97962531e+05, 1.50800078e+05, 1.76324719e+05, 2.53597594e+05,
          2.93992844e+05, 2.16453063e+05, 2.08011281e+05, 5.66327375e+05,
          4.29556750e+05, 1.70462094e+05, 1.99008359e+05, 3.06981875e+05 ]
      - [ 9.66270020e+02, 5.56964844e+02, 7.14580566e+02, 3.11898853e+03,
          2.77900732e+03, 1.58414343e+03, 1.19482092e+03, 5.13855713e+02,
          2.16583447e+03, 3.91483765e+02, 1.54162219e+03, 1.50461707e+03,
          1.76687683e+03, 1.55316772e+03, 1.89804541e+03, 3.67871948e+02,
          1.55144268e+04, 1.43101680e+04, 1.35183955e+04, 1.80678730e+04,
          4.28498828e+04, 2.64566523e+04, 4.49294922e+04, 6.00327344e+04,
          5.64342148e+04, 1.83692793e+04, 9.14923730e+03, 1.52764111e+04,
          3.62325000e+04, 3.07140020e+04, 3.22447793e+04, 4.02780859e+04,
          4.90043906e+04, 1.36452627e+04, 3.35630547e+04, 8.76167891e+04,
          9.84704141e+04, 1.62517041e+04, 1.89224551e+04, 3.12141074e+04,
          5.18776328e+04, 1.03182178e+04, 9.96524316e+03, 1.49822188e+04,
          1.13758379e+04, 8.55788086e+03, 1.17013379e+04, 2.20177500e+04,
          2.31526266e+05, 1.61686063e+05, 2.64410531e+05, 4.66741375e+05,
          4.15960656e+05, 2.80273156e+05, 3.10218469e+05, 2.71569844e+05,
          2.47289859e+05, 1.86646734e+05, 3.01354500e+05, 4.99066313e+05,
          4.89965500e+05, 3.95497750e+05, 3.50901281e+05, 2.85030875e+05 ]
      - [ 5.96824829e+02, 5.11136047e+02, 4.67338623e+02, 5.20761719e+02,
          8.55594910e+02, 6.03493774e+02, 1.19112512e+03, 6.55745178e+02,
          9.75940247e+02, 3.54552582e+02, 2.46975449e+02, 2.66783264e+02,
          9.11397461e+02, 5.03262482e+02, 7.37126099e+02, 2.62062836e+02,
          1.04499053e+04, 8.32463672e+03, 6.76627734e+03, 6.96240820e+03,
          1.92513242e+04, 1.47651689e+04, 1.10965508e+04, 9.28096680e+03,
          8.54836426e+03, 6.52721338e+03, 4.45926318e+03, 3.68496094e+03,
          1.40614805e+04, 1.10956270e+04, 1.35008770e+04, 9.21860840e+03,
          8.82875391e+03, 4.59426465e+03, 3.61503125e+03, 4.10671924e+03,
          6.93202246e+03, 7.53527539e+03, 7.08830371e+03, 5.60975488e+03,
          6.09527197e+03, 3.93072046e+03, 3.34907495e+03, 4.97187012e+03,
          8.12111670e+03, 1.03420039e+04, 8.25316406e+03, 7.19392139e+03,
          1.10826703e+05, 8.86146563e+04, 8.08513984e+04, 9.23964609e+04,
          1.23029344e+05, 1.08746039e+05, 1.15941508e+05, 1.00548750e+05,
          9.67900313e+04, 7.78847813e+04, 7.58718438e+04, 9.18451016e+04,
          1.21559703e+05, 1.10407078e+05, 1.20909047e+05, 1.02960953e+05 ]
      - [ 6.15562988e+02, 7.35451904e+02, 2.58069725e+01, 0., 0., 0., 0.,
          0., 0., 0., 0., 0., 0., 0., 2.70899601e+01, 1.13501366e+02,
          8.52564453e+03, 1.85434473e+04, 5.50602539e+03, 8.24672363e+03,
          6.43122607e+03, 2.05128101e+03, 3.72640381e+03, 1.22357490e+04,
          2.62185156e+04, 3.11755688e+03, 2.41534058e+03, 1.53276641e+04,
          1.69888711e+04, 2.91770874e+03, 2.18863013e+03, 1.53560229e+03,
          6.79677002e+03, 1.96310605e+04, 6.25730225e+03, 1.89757950e+02,
          1.28586716e+02, 6.75618774e+02, 2.61106445e+04, 3.03071143e+03,
          2.66999976e+03, 0., 0., 0., 0., 0., 0., 9.01997757e+01,
          2.39327625e+05, 3.14901875e+05, 2.65797781e+05, 6.27888688e+05,
          4.13313938e+05, 1.62542406e+05, 2.21524453e+05, 2.11454047e+05,
          2.37038813e+05, 1.96845641e+05, 3.14788563e+05, 7.96817125e+05,
          5.04613938e+05, 1.78420188e+05, 1.78148922e+05, 2.32997516e+05 ]
      - [ 1.34235744e+01, 2.30864067e+01, 4.16080399e+01, 2.72349625e+01,
          9.83339844e+01, 1.78885441e+01, 4.26005020e+01, 8.59013901e+01,
          2.86058319e+02, 1.32165100e+02, 2.92473602e+01, 3.39278183e+01,
          5.25640297e+01, 1.16832380e+01, 2.16721935e+01, 2.09104080e+01,
          7.24081836e+03, 3.13829053e+03, 3.15361060e+03, 8.50093652e+03,
          1.98962422e+04, 1.57300264e+04, 1.06354580e+04, 6.37539404e+03,
          5.55868896e+03, 9.69072070e+03, 2.49972520e+04, 2.10191055e+04,
          3.18602012e+04, 1.39603252e+04, 7.39076367e+03, 5.77791553e+03,
          1.94440879e+04, 1.17088193e+04, 9.36867480e+03, 1.72081523e+04,
          2.03813105e+04, 1.07839902e+04, 2.10080918e+04, 1.02464580e+04,
          2.72007129e+04, 1.57241660e+04, 2.06684766e+04, 1.15860967e+04,
          9.40060938e+03, 4.77270459e+03, 6.75471777e+03, 1.17187109e+04,
          2.17640656e+05, 2.28080094e+05, 2.25819969e+05, 2.65395375e+05,
          2.32862906e+05, 2.50342188e+05, 2.31680484e+05, 2.41101188e+05,
          2.63842781e+05, 2.79048500e+05, 3.02430219e+05, 3.26272813e+05,
          3.72767344e+05, 2.89502500e+05, 2.45901234e+05, 2.05214609e+05 ]
      - [ 9.48658203e+02, 6.61807175e+01, 4.36545715e+02, 1.96108154e+02,
          6.57541565e+02, 8.37818604e+02, 1.32156042e+03, 4.00138092e+02,
          8.62203735e+02, 3.53158722e+02, 2.61226563e+02, 9.05906448e+01,
          1.35808240e+03, 1.57679456e+03, 7.40433655e+02, 6.40250000e+02,
          2.40560020e+04, 2.03702773e+04, 1.52130684e+04, 1.68210352e+04,
          4.05510156e+04, 2.70527168e+04, 5.01524727e+04, 1.81057988e+04,
          1.88576230e+04, 1.90356875e+04, 1.85517207e+04, 2.82373613e+04,
          3.75671602e+04, 2.33188809e+04, 3.57693555e+04, 2.85084141e+04,
          3.07732188e+04, 2.02397617e+04, 3.38446641e+04, 3.74276250e+04,
          4.12318906e+04, 4.28826523e+04, 3.44633516e+04, 1.08104990e+04,
          3.18433574e+04, 1.73736602e+04, 1.54418076e+04, 1.99029355e+04,
          1.55535801e+04, 2.19104980e+04, 1.28620771e+04, 1.18667129e+04,
          2.20199797e+05, 1.68297938e+05, 1.59320438e+05, 1.99459922e+05,
          2.98910031e+05, 3.21822781e+05, 2.54018828e+05, 2.01210844e+05,
          1.84900813e+05, 1.81213438e+05, 2.19592063e+05, 2.07626984e+05,
          2.77634063e+05, 2.89162906e+05, 2.85691125e+05, 2.30440219e+05 ]
      - [ 7.44545313e+03, 3.29481250e+03, 1.08731836e+03, 7.47629517e+02,
          1.86588806e+03, 1.25374438e+03, 2.02576819e+03, 8.62541113e+03,
          1.35901875e+04, 1.56263513e+03, 4.92604102e+03, 6.42107617e+03,
          9.69021289e+03, 4.50031787e+03, 9.55718555e+03, 1.23420010e+04,
          8.07669531e+04, 3.28719375e+04, 1.36793145e+04, 1.42728008e+04,
          7.52471641e+04, 1.39225186e+04, 1.68986191e+04, 3.73461055e+04,
          4.98078242e+04, 2.72933184e+04, 3.32246953e+04, 1.79302422e+04,
          5.98412734e+04, 1.64386348e+04, 2.02682227e+04, 2.81304355e+04,
          1.37114953e+05, 3.17586641e+04, 2.33467070e+04, 1.54985059e+04,
          1.43115225e+04, 2.44909141e+04, 4.47323359e+04, 8.96231719e+04,
          1.40667703e+05, 5.82374258e+04, 3.90132891e+04, 1.84140059e+04,
          2.67034082e+04, 3.86578008e+04, 5.04171289e+04, 8.52984766e+04,
          4.90156031e+05, 3.68055813e+05, 3.82949500e+05, 4.80379219e+05,
          5.05184625e+05, 2.00721297e+05, 2.29247156e+05, 4.22099500e+05,
          4.82794094e+05, 4.36290906e+05, 3.66604844e+05, 4.03805094e+05,
          4.17724031e+05, 1.94517922e+05, 2.82022500e+05, 4.88946906e+05 ]
      - [ 5.14575256e+02, 1.49413071e+02, 6.87336655e+01, 8.42140121e+01,
          1.97999985e+02, 6.70820389e+01, 4.17156860e+02, 1.57934729e+03,
          1.09683191e+03, 6.38326904e+02, 2.35873215e+02, 1.52970572e+01,
          2.40783875e+02, 7.86505432e+01, 7.09123596e+02, 6.17700562e+02,
          4.82673242e+03, 2.36840332e+03, 6.58762451e+03, 1.51310127e+04,
          1.06324404e+04, 4.73356250e+03, 5.38835596e+03, 6.06442480e+03,
          8.81725781e+03, 5.89579150e+03, 7.54472412e+03, 3.16266934e+04,
          2.40669941e+04, 7.61836328e+03, 4.79204785e+03, 3.94678418e+03,
          9.56284863e+03, 5.47590869e+03, 9.44315332e+03, 3.23631348e+04,
          4.23871289e+04, 8.51528711e+03, 7.10880029e+03, 4.20123926e+03,
          6.66658936e+03, 8.18846924e+02, 2.72483765e+02, 5.40272095e+02,
          6.18784180e+02, 1.32889551e+03, 2.63913818e+03, 2.20199170e+03,
          1.81983016e+05, 1.33634109e+05, 1.85058250e+05, 3.11303156e+05,
          2.35842125e+05, 1.92147375e+05, 294020., 3.50016688e+05,
          2.33186578e+05, 1.24339961e+05, 2.17879438e+05, 3.67251969e+05,
          3.93514313e+05, 3.38731688e+05, 2.87577344e+05, 3.33076781e+05 ]
      - [ 0., 0., 0., 0., 0., 0., 0., 0., 0., 0., 0., 0., 0., 0., 0., 0.,
          2.17402188e+04, 2.20072559e+04, 7.27087402e+03, 3.72322485e+03,
          6.11888945e+04, 2.34010859e+04, 2.64327324e+04, 1.04682297e+05,
          8.16825156e+04, 5.81470117e+04, 1.82797617e+04, 1.59256748e+04,
          3.77225352e+04, 1.71733906e+04, 1.65998672e+04, 2.84571465e+04,
          0., 0., 0., 0., 0., 0., 0., 0., 0., 2.54558430e+01,
          1.35848132e+03, 6.13368008e+04, 7.12662578e+04, 1.25050610e+03,
          5.09116898e+01, 0., 4.71074500e+05, 3.24852969e+05,
          3.73667844e+05, 8.25788375e+05, 8.54760438e+05, 1.37353625e+05,
          1.51534094e+05, 273438., 3.38443438e+05, 4.41830656e+05,
          4.39340375e+05, 7.86025438e+05, 5.17927125e+05, 1.92048750e+05,
          2.81403656e+05, 4.69571500e+05 ]
      - [ 0., 0., 0., 0., 0., 0., 0., 0., 0., 0., 0., 0., 0., 0., 0., 0.,
          1.36038350e+04, 7.21267041e+03, 3.35451489e+03, 1.38827905e+03,
          7.53483459e+02, 6.71668604e+03, 2.00698184e+04, 8.05251719e+04,
          9.57119688e+04, 1.02230156e+04, 8.07794971e+03, 4.87021289e+03,
          4.98926465e+03, 1.72411047e+03, 3.81779956e+03, 7.20867041e+03,
          0., 0., 0., 0., 0., 0., 0., 0., 0., 0., 0., 0., 0., 0., 0., 0.,
          1.91084281e+05, 1.70987984e+05, 1.88373625e+05, 7.51715563e+05,
          4.91221844e+05, 4.33136438e+05, 1.97632422e+05, 2.27610875e+05,
          2.15643875e+05, 2.08340703e+05, 1.74955797e+05, 6.84674375e+05,
          5.63244563e+05, 3.32610531e+05, 3.06096781e+05, 3.86295594e+05 ]
      - [ 7.27617798e+02, 5.66779480e+02, 2.50839355e+02, 5.06918732e+02,
          2.10960913e+03, 1.56753564e+03, 4.19556335e+02, 1.90647339e+02,
          8.53824646e+02, 1.53733276e+02, 3.88040649e+02, 1.21582471e+03,
          1.05208630e+03, 1.02711761e+02, 1.23050591e+02, 1.48073608e+02,
          1.42949805e+04, 4.69422803e+03, 3.50110181e+03, 1.82220859e+04,
          2.89430469e+04, 5.41015869e+03, 8.82346289e+03, 1.78073789e+04,
          1.11276855e+04, 6.22229346e+03, 4.96017822e+03, 2.73170371e+04,
          4.10883281e+04, 1.16415527e+04, 5.62688281e+03, 2.40587227e+04,
          5.01145605e+03, 3.63723047e+03, 1.04533213e+04, 5.90599063e+04,
          5.25662422e+04, 1.01662334e+04, 3.63372876e+03, 3.19306665e+03,
          5.89259375e+03, 2.66351147e+03, 4.05409424e+03, 1.56487939e+04,
          1.94915684e+04, 5.32302686e+03, 3.52190283e+03, 1.42259473e+03,
          5.19778398e+04, 3.67763867e+04, 3.89292891e+04, 2.84283906e+05,
          2.42616891e+05, 3.73208594e+04, 2.83920547e+04, 3.74074141e+04,
          5.23388242e+04, 6.39673945e+04, 1.02838211e+05, 3.54991344e+05,
          3.44702375e+05, 1.15346461e+05, 5.76336758e+04, 5.42758477e+04 ]
      - [ 0., 9.89949417e+00, 7.61577320e+00, 1.66291855e+02,
          1.68422058e+03, 8.39634857e+01, 1.03973099e+02, 2.98995628e+01,
          4.62465149e+02, 5.15253418e+02, 7.03409912e+02, 1.04173945e+04,
          6.97837939e+03, 0., 0., 0., 4.94714941e+03, 7.44161475e+03,
          1.52663721e+04, 4.23155586e+04, 5.42516172e+04, 1.23011758e+04,
          6.18610107e+03, 6.94365430e+03, 6.48163379e+03, 8.82539941e+03,
          1.82496797e+04, 4.32030156e+04, 5.10650273e+04, 2.39188730e+04,
          1.31662881e+04, 7.31325293e+03, 3.43392031e+04, 1.40510234e+04,
          1.15646387e+04, 1.09316885e+04, 1.29920596e+04, 1.22520283e+04,
          1.12389863e+04, 2.27046797e+04, 3.74910820e+04, 1.93321328e+04,
          1.69107129e+04, 3.10330996e+04, 1.96763457e+04, 1.45892344e+04,
          1.93751953e+04, 2.26663672e+04, 3.45362594e+05, 2.70385344e+05,
          2.76963625e+05, 6.81628438e+05, 7.79759438e+05, 4.72024844e+05,
          3.58676375e+05, 4.03860438e+05, 3.81389563e+05, 2.77750719e+05,
          2.56141578e+05, 5.65267875e+05, 7.91821813e+05, 3.84945125e+05,
          3.68910875e+05, 4.57839438e+05 ]
      - [ 1.49250171e+03, 5.38135193e+02, 5.20195984e+02, 5.62275085e+02,
          8.22015039e+03, 4.27967871e+03, 3.17009399e+02, 0.,
          2.92134216e+02, 1.09212135e+02, 7.12928528e+02, 4.58148828e+03,
          1.01451592e+04, 3.43457910e+03, 1.30575684e+03, 5.85532227e+02,
          4.46569883e+04, 7.19839600e+03, 5.84383057e+03, 6.25849414e+03,
          5.27983906e+04, 2.82843281e+04, 2.10906680e+04, 4.24067578e+04,
          5.50127383e+04, 2.99836406e+04, 9.91274707e+03, 7.64053027e+03,
          3.20467383e+04, 1.50763262e+04, 2.11232773e+04, 3.73834766e+04,
          1.53817832e+04, 8.78237402e+03, 1.22404482e+04, 2.77934297e+04,
          9.38365391e+04, 3.47341523e+04, 1.52507734e+04, 1.10957119e+04,
          1.92015059e+04, 1.07564951e+04, 2.47422637e+04, 3.57494805e+04,
          5.94590820e+04, 3.11324434e+04, 1.65589688e+04, 8.62250488e+03,
          3.28173719e+05, 1.64748672e+05, 1.32442422e+05, 2.72821563e+05,
          9.30522063e+05, 3.72512469e+05, 2.74635250e+05, 2.70757125e+05,
          3.30553281e+05, 1.73633172e+05, 1.49831359e+05, 2.65179469e+05,
          738333., 4.00175156e+05, 2.90721219e+05, 3.14153844e+05 ]
      - [ 226., 2.65394867e+02, 4.02708472e+03, 7.37954102e+02,
          4.39999969e+02, 0., 0., 0., 0., 0., 0., 0., 0., 0., 0., 0.,
          7.76144434e+03, 1.45286602e+04, 1.05875811e+04, 7.17966943e+03,
          4.26979541e+03, 1.97393457e+03, 1.05839893e+03, 6.98698340e+03,
          1.54176648e+03, 1.29093970e+03, 2.26414111e+03, 2.08757480e+04,
          1.30117275e+04, 4.27048730e+03, 2.80715527e+03, 6.18192285e+03,
          9.93999939e+02, 7.36645126e+01, 7.51663818e+03, 3.79801016e+04,
          3.16963477e+04, 1.46686865e+04, 3.14224976e+03, 8.63336029e+01,
          1.31599988e+03, 0., 0., 0., 0., 0., 0., 0., 2.23847078e+05,
          1.67130922e+05, 2.92191969e+05, 4.62375156e+05, 460875.,
          1.42919281e+05, 1.77092750e+05, 1.43628797e+05, 2.56554938e+05,
          2.33108906e+05, 2.69001469e+05, 515530., 6.35748313e+05,
          1.14559672e+05, 1.45538578e+05, 2.30690828e+05 ]
      - [ 7.87934875e+01, 4.93115883e+01, 5.83095121e+00, 1.59566040e+02,
          6.40049927e+02, 4.16373863e+01, 6.29249268e+01, 9.15141296e+01,
          5.66966248e+01, 5.76328049e+01, 3.18858147e+01, 1.24827866e+02,
          3.58775970e+02, 3.05886497e+01, 5.99176064e+01, 2.04313831e+01,
          2.29366040e+03, 1.95877551e+03, 1.90254004e+03, 4.06702051e+03,
          6.45430566e+03, 4.17794385e+03, 3.83574023e+03, 1.17788037e+03,
          1.21409290e+03, 8.31953247e+02, 1.17022742e+03, 3.67161621e+03,
          2.66530059e+04, 9.05959473e+03, 4.50414697e+03, 1.63644263e+03,
          1.13388928e+03, 9.39424438e+02, 4.32363770e+02, 8.10062195e+02,
          2.72461890e+03, 3.24412781e+02, 6.63760620e+02, 3.09182861e+02,
          7.43235596e+02, 3.31550385e+02, 2.16564911e+02, 4.14371185e+02,
          1.93872876e+03, 2.62286469e+02, 3.19842224e+02, 2.93624786e+02,
          2.91921152e+04, 2.24678906e+04, 1.59630166e+04, 2.10918809e+04,
          4.45634219e+04, 2.78303242e+04, 1.66617598e+04, 7.00747998e+03,
          1.02225498e+04, 8.61432520e+03, 9.05492480e+03, 2.86896934e+04,
          9.23277422e+04, 2.45734875e+05, 6.19050430e+04, 2.35415645e+04 ]
      - [ 0., 0., 0., 0., 0., 0., 0., 0., 0., 0., 0., 0., 0., 0., 0., 0.,
          1.45347109e+05, 3.87074375e+04, 3.15383423e+03, 2.09704443e+03,
          1.63266199e+03, 6.84826709e+03, 6.64006152e+03, 1.29050801e+04,
          3.13919180e+04, 1.53226318e+04, 6.72029297e+03, 3.86508374e+03,
          1.08653311e+04, 9.57078320e+03, 1.00443740e+04, 8.87124531e+04,
          7.24556299e+03, 7.20757471e+03, 2.12250391e+04, 7.61508438e+04,
          9.83098281e+04, 4.16741445e+04, 2.01144902e+04, 8.04807068e+02,
          3.28052441e+03, 5.04176025e+03, 7.31728418e+03, 4.10570547e+04,
          5.79147148e+04, 1.61118672e+04, 6.73767432e+03, 5.32289014e+03,
          4.27683500e+05, 3.06596844e+05, 2.85567094e+05, 5.27395125e+05,
          6.37492063e+05, 1.62646766e+05, 3.41817594e+05, 4.65326906e+05,
          6.13706688e+05, 3.01523906e+05, 2.70263781e+05, 4.93527125e+05,
          8.09191375e+05, 1.76523406e+05, 2.58506016e+05, 4.78820750e+05 ]
      - [ 2.79726855e+03, 1.99601379e+03, 8.03210754e+02, 1.04393640e+03,
          1.55080612e+02, 3.25386841e+02, 6.27962207e+03, 8.43792969e+03,
          1.28673125e+04, 4.90276025e+03, 6.73275342e+03, 5.69324951e+03,
          9.13614453e+03, 5.07059863e+03, 3.03453955e+03, 1.82807581e+03,
          5.57667305e+04, 2.51792168e+04, 7.83858984e+03, 1.95072949e+04,
          4.89007695e+04, 3.40948398e+04, 2.21030195e+04, 6.60985938e+04,
          5.39253750e+04, 16825., 1.57822715e+04, 3.03890566e+04,
          5.06990742e+04, 1.63111094e+04, 9.18267090e+03, 2.27111621e+04,
          2.05938219e+05, 3.16346016e+04, 2.20389258e+04, 1.00606885e+04,
          2.16416152e+04, 2.94116523e+04, 4.79598828e+04, 1.27911930e+05,
          2.07330031e+05, 4.61073477e+04, 3.54201563e+04, 2.61092539e+04,
          2.69553164e+04, 3.70813438e+04, 6.36746914e+04, 1.48390656e+05,
          3.96311531e+05, 3.25262844e+05, 3.85937969e+05, 5.25046563e+05,
          3.42312594e+05, 1.72034453e+05, 1.88052641e+05, 2.73964719e+05,
          4.46455375e+05, 3.42504875e+05, 3.77310906e+05, 5.25436750e+05,
          3.58374188e+05, 1.72451969e+05, 1.93927016e+05, 3.49093625e+05 ]
      - [ 9.70823486e+02, 7.07916626e+02, 1.07857361e+03, 7.60124573e+02,
          4.65023560e+02, 2.61797791e+02, 1.32253577e+03, 8.93100769e+02,
          2.17922583e+03, 7.08567932e+02, 2.17942261e+03, 3.16474829e+03,
          2.41146558e+03, 4.93152832e+02, 1.64952942e+02, 5.66576355e+02,
          1.99208359e+04, 1.66975566e+04, 2.48365176e+04, 1.56374824e+04,
          1.20717422e+04, 9.36794141e+03, 1.77842012e+04, 3.86236563e+04,
          3.07911563e+04, 1.50453086e+04, 5.61350049e+03, 1.07444492e+04,
          1.74416543e+04, 1.59245527e+04, 1.01405469e+04, 9.14198535e+03,
          3.74740117e+04, 1.09109248e+04, 7.91868555e+03, 7.58942920e+03,
          7.68077686e+03, 6.54634619e+03, 7.61817236e+03, 2.26076270e+04,
          3.36561172e+04, 9.27782227e+03, 7.49424316e+03, 8.66707422e+03,
          7.34556787e+03, 7.12834473e+03, 8.98158301e+03, 1.78626699e+04,
          2.09331250e+05, 2.30101500e+05, 2.47386578e+05, 3.63165906e+05,
          5.23073750e+05, 3.00419063e+05, 2.23799016e+05, 235358.,
          329006., 3.17775594e+05, 1.84733859e+05, 2.65147781e+05,
          4.53714969e+05, 3.63519875e+05, 2.83736938e+05, 2.75820188e+05 ]
      - [ 0., 0., 0., 0., 0., 0., 0., 0., 0., 0., 0., 0., 0., 0., 0., 0.,
          9.26489844e+03, 6.76773486e+03, 3.04412671e+03, 9.36903687e+02,
          8.81719531e+03, 4.23457578e+04, 2.60769609e+04, 7.41336641e+04,
          9.04767422e+04, 2.91588027e+04, 1.74516563e+04, 7.83414014e+03,
          4.26617822e+03, 1.28324395e+04, 1.51448438e+04, 2.96539434e+04,
          18., 0., 0., 0., 0., 0., 0., 0., 6.11543274e+01,
          1.81217316e+02, 8.94427204e+00, 2.13974014e+02, 1.69559509e+02,
          3.86023254e+01, 1.66374756e+02, 6.26469650e+01, 471261.,
          3.05768188e+05, 6.25006313e+05, 4.82524813e+05, 5.21402531e+05,
          1.26788492e+05, 1.51096359e+05, 2.94425875e+05, 4.49244219e+05,
          2.95915719e+05, 5.22807250e+05, 8.48812313e+05, 4.03367563e+05,
          1.09398070e+05, 2.14931656e+05, 3.67345625e+05 ]
      - [ 3.91415674e+03, 1.22263069e+02, 8.38173279e+02, 3.19121606e+03,
          1.69231543e+03, 2.08009628e+02, 6.66951538e+02, 1.72812524e+03,
          5.30388379e+03, 1.88515662e+03, 6.85536743e+02, 2.82470215e+02,
          1.33160352e+03, 2.79135791e+03, 4.53612598e+03, 5.51317480e+03,
          4.66237773e+04, 1.60565791e+04, 9.07968262e+03, 1.45032344e+04,
          3.11402930e+04, 1.66747617e+04, 2.34303750e+04, 6.33847148e+04,
          5.51785391e+04, 1.16344092e+04, 1.04593652e+04, 1.77346543e+04,
          3.02317832e+04, 1.00864453e+04, 7.66251172e+03, 1.65795332e+04,
          1.45107813e+05, 2.94331113e+04, 1.58789473e+04, 3.38589336e+04,
          2.44348848e+04, 2.30701602e+04, 2.61244590e+04, 7.68242188e+04,
          1.12889352e+05, 2.13712383e+04, 2.15796836e+04, 6.94773906e+04,
          3.91556836e+04, 2.24743789e+04, 2.07977246e+04, 7.88011016e+04,
          6.28003813e+05, 3.12067719e+05, 2.83014813e+05, 6.82626500e+05,
          6.60061313e+05, 3.11460906e+05, 2.91109375e+05, 5.63122563e+05,
          5.66598625e+05, 2.99410625e+05, 2.73946844e+05, 6.54534563e+05,
          655498., 2.87780844e+05, 2.78423406e+05, 4.95702031e+05 ]
      - [ 6.09736671e+01, 1.06066010e+02, 3.09092617e+01, 4.37575569e+01,
          6.34868317e+01, 2.68328171e+01, 6.07739410e+01, 2.84604988e+01,
          8.24605026e+01, 3.95607376e+01, 2.68328171e+01, 1.89736671e+01,
          7.52970581e+01, 2.16333084e+01, 6.41618958e+01, 2.47838898e+01,
          3.09405234e+04, 1.87884766e+04, 1.26380664e+04, 9.07104785e+03,
          1.66205664e+04, 1.04644170e+04, 1.72464590e+04, 3.40541953e+04,
          3.57667773e+04, 2.81199785e+04, 1.31505996e+04, 5.78888184e+03,
          2.25327129e+04, 2.10846816e+04, 3.07312793e+04, 4.40865508e+04,
          4.04085522e+03, 1.48196350e+03, 4.88438568e+02, 7.64295349e+02,
          1.41635449e+03, 4.61492432e+02, 1.05232324e+03, 1.07773303e+03,
          3.53471924e+03, 1.18371130e+03, 6.62462463e+02, 1.09399670e+03,
          1.55428674e+03, 3.26392303e+02, 7.44171631e+02, 5.91328918e+02,
          3.57984094e+05, 2.75088500e+05, 1.76476875e+05, 1.43134422e+05,
          1.36283891e+05, 1.45021875e+05, 1.92208719e+05, 2.87829781e+05,
          3.49969875e+05, 3.77582656e+05, 2.55498984e+05, 2.19804141e+05,
          2.01789531e+05, 2.11530125e+05, 2.49956406e+05, 3.21044719e+05 ]
      - [ 0., 0., 0., 0., 4.79999969e+02, 0., 0., 0., 0., 0., 0., 0., 0.,
          0., 0., 0., 3.77171523e+04, 1.15998584e+04, 1.19001699e+04,
          1.13228975e+04, 1.05833789e+04, 6.56793115e+03, 1.14695215e+04,
          2.85597109e+04, 2.17546934e+04, 5.96335938e+03, 1.37245439e+04,
          9.93567578e+03, 7.21138477e+03, 9.94353906e+03, 1.41548301e+04,
          3.27673340e+04, 3.03754787e+01, 5.37401161e+01, 2.83802551e+02,
          1.45645088e+04, 1.77414844e+04, 3.94467041e+02, 2.72661915e+01,
          2.23681259e+01, 0., 3.39411240e+01, 0., 7.79353638e+01,
          1.11098869e+02, 2.58069725e+01, 1.69705620e+01, 0.,
          3.18642531e+05, 2.38705719e+05, 2.86254313e+05, 4.09284688e+05,
          4.25432156e+05, 2.95698469e+05, 3.05918313e+05, 3.11361500e+05,
          4.10169906e+05, 2.69348750e+05, 2.66538094e+05, 4.76015875e+05,
          3.42333625e+05, 2.93156750e+05, 3.36815375e+05, 3.91767781e+05 ]
      - [ 9.40436829e+02, 8.80670044e+02, 2.21093530e+03, 3.61011304e+03,
          5.04909668e+03, 1.98024866e+03, 9.83788452e+02, 6.02228333e+02,
          1.05465649e+03, 8.63346619e+02, 3.13715869e+03, 6.01168848e+03,
          7.73348047e+03, 3.58228174e+03, 5.33163513e+02, 5.60894165e+02,
          1.93360293e+04, 9.71241699e+03, 8.54225977e+03, 1.81243008e+04,
          3.92854570e+04, 9.61074316e+03, 7.64542285e+03, 4.48499121e+03,
          7.75224414e+03, 6.98566211e+03, 9.42251172e+03, 1.62254395e+04,
          2.90359063e+04, 1.18748779e+04, 1.31623975e+04, 2.12915586e+04,
          1.40385537e+04, 8.21810547e+03, 4.19042578e+03, 1.02578945e+04,
          9.06869922e+03, 3.65592603e+03, 5.09786865e+03, 7.99010156e+03,
          1.34936865e+04, 4.56502783e+03, 4.34876758e+03, 2.12127715e+04,
          2.37083125e+04, 9.30758301e+03, 2.88020239e+03, 6.71962500e+03,
          1.22289594e+05, 5.32130781e+04, 5.90227109e+04, 1.54223094e+05,
          2.56888781e+05, 9.35218828e+04, 6.43585508e+04, 7.79290391e+04,
          1.40361531e+05, 8.26917031e+04, 8.87339844e+04, 2.00562875e+05,
          2.21394266e+05, 9.49147109e+04, 7.61294297e+04, 6.11144453e+04 ]
      - [ 2.87460175e+02, 6.03959839e+02, 4.97803406e+02, 6.56638977e+02,
          3.25804321e+02, 0., 0., 0., 1.19999990e+01, 0., 0., 0., 12.,
          3.91261597e+01, 9.43777084e+01, 1.61618393e+02, 7.90109497e+02,
          8.17690552e+02, 1.63945325e+03, 9.29464551e+03, 1.51897432e+04,
          5.14747998e+03, 2.79421655e+03, 1.12964453e+03, 2.74374902e+03,
          2.31589258e+03, 6.38099316e+03, 2.66049141e+04, 1.55717139e+04,
          6.68176172e+03, 4.74158203e+03, 4.55023468e+02, 2.11186865e+03,
          2.25762134e+03, 5.26527148e+03, 7.75768799e+03, 6.26940527e+03,
          7.84208130e+02, 5.23877930e+02, 1.29956100e+02, 7.16278625e+02,
          1.00437280e+03, 2.12248950e+03, 3.62234912e+03, 2.66770801e+03,
          3.42255371e+02, 5.04567169e+02, 2.34049423e+02, 1.09797969e+04,
          8.39811523e+03, 1.36920293e+04, 5.88155781e+04, 8.94147031e+04,
          1.40664932e+04, 1.01564717e+04, 3.59912183e+03, 1.30136982e+04,
          1.59642998e+04, 3.27961914e+04, 1.27485672e+05, 1.59449828e+05,
          3.73605391e+04, 1.15345879e+04, 2.94278882e+03 ]
      - [ 0., 0., 0., 0., 0., 0., 0., 0., 0., 0., 0., 0., 0., 0., 0., 0.,
          3.99999976e+00, 0., 2.28473206e+01, 2.84604988e+01,
          3.43549766e+04, 9.52828613e+03, 1.10595410e+04, 3.70467227e+04,
          4.63238750e+04, 7.69833740e+03, 7.80187988e+03, 3.47592305e+04,
          1122., 0., 4.24264050e+00, 3.16227770e+00, 0., 0., 0., 0., 0.,
          0., 0., 0., 9.48683357e+00, 4.24264050e+00, 1.74928551e+01,
          2.71661568e+01, 18., 2.28473206e+01, 1.76590481e+01, 0.,
          3.10809250e+05, 2.33753656e+05, 3.14034094e+05, 8.58510750e+05,
          6.09880875e+05, 1.56666031e+05, 1.68855219e+05, 1.88813875e+05,
          3.40329625e+05, 3.21068594e+05, 3.76509156e+05, 7.22428375e+05,
          5.33732375e+05, 2.06427266e+05, 2.12304266e+05, 3.68496656e+05 ]
      - [ 1.33753845e+02, 1.03767128e+02, 0., 1.62479077e+03,
          4.15167529e+03, 2.84560107e+03, 1.51518835e+03, 7.46546631e+02,
          7.46049500e+02, 1.09379260e+03, 1.14619702e+03, 1.85411646e+03,
          4.85505078e+03, 1.29240625e+03, 8.48528099e+00, 1.92442184e+02,
          8.08284229e+03, 7.76018750e+03, 3.77676978e+03, 1.73371758e+04,
          4.85468594e+04, 9.23103223e+03, 7.89380176e+03, 3.55733789e+04,
          2.18748848e+04, 7.88743018e+03, 7.59441455e+03, 2.95165469e+04,
          2.61337012e+04, 4.16710303e+03, 5.99994482e+03, 9.01193652e+03,
          7.38916016e+04, 4.64992031e+04, 4.05986719e+04, 3.16250098e+04,
          4.23353008e+04, 3.40003008e+04, 5.36641641e+04, 7.59149609e+04,
          7.08654688e+04, 2.04436094e+04, 1.81063926e+04, 2.98689336e+04,
          3.16235059e+04, 2.82180449e+04, 2.83097051e+04, 6.03859766e+04,
          4.61249188e+05, 1.97264672e+05, 1.66151313e+05, 4.47887781e+05,
          5.15004188e+05, 1.60357328e+05, 2.05789922e+05, 5.66587813e+05,
          4.15014813e+05, 2.20667188e+05, 1.63582609e+05, 3.59690094e+05,
          4.03590375e+05, 1.68763563e+05, 2.04454797e+05, 5.03406344e+05 ]
      - [ 1.11197168e+03, 7.89582031e+02, 7.79072998e+02, 1.71879089e+03,
          1.59316055e+04, 2.33814575e+03, 2.27785645e+03, 5.44720459e+02,
          1.74755713e+03, 1.66790601e+03, 2.36284692e+03, 9.33564258e+03,
          1.05347793e+04, 1.38559546e+03, 1.12451904e+03, 1.17002356e+03,
          2.67497461e+04, 2.01417734e+04, 1.30996309e+04, 2.46256484e+04,
          6.91159609e+04, 1.49979219e+04, 3.46276484e+04, 4.56525625e+04,
          4.21938320e+04, 2.37966758e+04, 2.12788105e+04, 2.58062305e+04,
          3.48140977e+04, 1.88817441e+04, 1.53961543e+04, 3.71729531e+04,
          1.06324375e+05, 1.49410791e+04, 1.80503516e+04, 3.48640859e+04,
          2.91475664e+04, 9.44938379e+03, 1.74540098e+04, 8.81816719e+04,
          6.23870117e+04, 1.15878896e+04, 1.60747451e+04, 3.60894688e+04,
          2.74703652e+04, 9.22398828e+03, 1.05486016e+04, 7.79365313e+04,
          4.17647469e+05, 3.68047438e+05, 3.46494313e+05, 3.77575656e+05,
          4.27773781e+05, 2.12501656e+05, 2.01172891e+05, 2.99577250e+05,
          3.59556625e+05, 3.39261031e+05, 3.02650438e+05, 4.26377250e+05,
          4.29413656e+05, 2.27206500e+05, 1.87685250e+05, 4.07457250e+05 ]
      - [ 1.04530020e+04, 4.26063867e+03, 3.00846631e+03, 1.83319299e+03,
          1.66177063e+03, 4.33820229e+01, 2.84383545e+02, 9.69786377e+02,
          1.96677771e+03, 5.12582471e+03, 9.27598145e+02, 2.31410596e+03,
          6.10655957e+03, 3.78029517e+03, 2.72842896e+03, 3.36628027e+03,
          1.43410479e+04, 8.55287500e+03, 4.63964795e+03, 6.45149121e+03,
          2.28656387e+04, 1.83194473e+04, 1.96346484e+04, 1.70041523e+04,
          1.88849688e+04, 1.57684941e+04, 1.59143232e+04, 1.43432080e+04,
          2.33800039e+04, 1.58803545e+04, 1.36080605e+04, 1.74912656e+04,
          3.53544531e+04, 1.43367012e+04, 9.50525195e+03, 9.25526367e+03,
          1.14140537e+04, 8.00294141e+03, 9.76943359e+03, 2.31366953e+04,
          6.71694844e+04, 3.37401445e+04, 2.74980547e+04, 2.20028926e+04,
          2.87137734e+04, 1.45268193e+04, 2.69509668e+04, 3.16896914e+04,
          2.84845375e+05, 1.58079125e+05, 1.61795297e+05, 3.24040844e+05,
          7.92307688e+05, 2.88806063e+05, 2.27257719e+05, 3.13986938e+05,
          3.45981969e+05, 1.94442125e+05, 1.97490672e+05, 4.09910438e+05,
          7.19671813e+05, 2.88179250e+05, 2.21750594e+05, 2.62918563e+05 ]
      - [ 5.13607617e+03, 8.32331924e+01, 5.57888680e+01, 3.06358673e+02,
          7.75003784e+02, 3.12855072e+02, 1.01030411e+02, 6.58601904e+03,
          7.76431836e+03, 1.17726994e+01, 2.94455261e+02, 3.28026337e+02,
          1.95413489e+03, 4.57937775e+01, 2.68478699e+01, 3.50861206e+03,
          2.55732500e+04, 1.15459238e+04, 2.03277656e+04, 9.14309570e+03,
          1.87527676e+04, 5.69796094e+03, 1.53576973e+04, 2.92057109e+04,
          4.49961367e+04, 2.82152402e+04, 1.54599092e+04, 2.09586133e+04,
          1.54785400e+04, 1.35900957e+04, 1.08545664e+04, 2.81747168e+04,
          4.35463359e+04, 1.01061377e+04, 7.55696582e+03, 1.26724785e+04,
          2.15804102e+04, 3.60711289e+04, 1.25252773e+04, 2.57562520e+04,
          3.94836523e+04, 8.61403906e+03, 1.57679443e+04, 6.79237813e+04,
          7.43363906e+04, 1.81948359e+04, 7.72088965e+03, 1.81905742e+04,
          1.95867344e+05, 1.69104813e+05, 1.95556438e+05, 5.20865438e+05,
          7.17406250e+05, 2.59559891e+05, 2.48276875e+05, 2.54013625e+05,
          2.86538875e+05, 2.58368953e+05, 2.44230734e+05, 6.13867063e+05,
          7.66760063e+05, 2.47581953e+05, 2.21978250e+05, 2.25135078e+05 ]
      - [ 2.85903137e+02, 3.77771942e+02, 1.01964709e+03, 1.12572534e+03,
          4.76951385e+02, 3.68631325e+01, 7.66698761e+01, 9.48683357e+00,
          2.71622772e+01, 2.68700562e+01, 4.47213602e+00, 0.,
          1.86491108e+01, 4.47213602e+00, 2.27154617e+01, 2.24689369e+01,
          5.28661182e+03, 5.58019580e+03, 6.83801855e+03, 3.00519941e+04,
          2.72294648e+04, 6.95784131e+03, 5.41339014e+03, 2.80486792e+03,
          4.95079736e+03, 4.32795752e+03, 7.97640283e+03, 3.85527500e+04,
          4.50786914e+04, 5.37256592e+03, 4.03268433e+03, 6.68104932e+03,
          9.03488403e+02, 1.07470154e+03, 3.12027051e+03, 1.06910303e+04,
          1.44463730e+04, 2.54858545e+03, 9.23537415e+02, 1.82267960e+02,
          9.10126160e+02, 2.95602356e+02, 1.53768463e+02, 3.00963531e+02,
          5.15969421e+02, 1.54466797e+02, 2.05271683e+02, 7.50317688e+01,
          2.07353453e+05, 1.07414719e+05, 1.24570766e+05, 3.24226125e+05,
          4.36811750e+05, 2.34113953e+05, 1.80727844e+05, 2.69519031e+05,
          2.69264031e+05, 2.14362453e+05, 1.87800453e+05, 3.06811625e+05,
          5.52483938e+05, 3.11318094e+05, 2.29712703e+05, 3.50848219e+05 ]
      - [ 2.17902222e+03, 4.25457153e+02, 1.59146448e+03, 6.28712463e+02,
          5.65815491e+02, 3.98809265e+02, 4.82281433e+02, 1.61436188e+02,
          1.19507922e+03, 2.65341339e+02, 1.16807495e+03, 6.73094482e+02,
          2.00322754e+03, 1.42385364e+03, 3.79307764e+03, 1.92419482e+03,
          2.73571445e+04, 3.08456230e+04, 2.64561934e+04, 2.95001855e+04,
          4.18807656e+04, 3.84176016e+04, 4.75594609e+04, 6.29619063e+04,
          4.88234492e+04, 2.66460527e+04, 1.87877129e+04, 2.25254160e+04,
          4.47004102e+04, 4.34923867e+04, 4.02896836e+04, 4.33656484e+04,
          1.26768271e+04, 6.45844580e+03, 2.20453203e+04, 7.22993047e+04,
          6.96164141e+04, 2.09929668e+04, 8.07726514e+03, 6.18200488e+03,
          2.07732500e+04, 9.27305371e+03, 7.64342969e+03, 7.28867578e+04,
          5.48250391e+04, 1.56903184e+04, 1.15406045e+04, 9.08162109e+03,
          4.18313438e+05, 3.43875719e+05, 2.96484500e+05, 4.43646969e+05,
          4.23180406e+05, 1.81762016e+05, 2.27623672e+05, 3.04604438e+05,
          3.81390313e+05, 2.66208750e+05, 3.94263063e+05, 6.83970500e+05,
          3.21577750e+05, 1.67469531e+05, 2.01077766e+05, 4.25883906e+05 ]
      - [ 1.58113880e+01, 6.54382095e+01, 7.89078827e+01, 1.17572189e+02,
          6.28985962e+02, 2.56112549e+02, 5.16898682e+02, 1.25787651e+02,
          1.30916672e+02, 1.87809105e+01, 0., 0., 1.39999990e+01, 0.,
          2.07955837e+01, 2.66904602e+01, 2.10283765e+03, 3.28944458e+03,
          4.74266357e+03, 6.60653418e+03, 9.25415625e+03, 3.05191675e+03,
          2.58224536e+03, 1.68800220e+03, 2.17277246e+03, 2.53813037e+03,
          3.16120508e+03, 1.26751943e+04, 2.48272949e+04, 9.86636230e+03,
          3.07570142e+03, 1.43819617e+03, 6.92303662e+03, 3.96018970e+03,
          1.90209521e+03, 2.70081763e+03, 3.47480664e+03, 2.88561792e+03,
          3.35813770e+03, 4.26386377e+03, 5.19828906e+03, 3.09212817e+03,
          2.68858960e+03, 2.81918823e+03, 3.93269678e+03, 2.78757202e+03,
          4.66549023e+03, 4.09423804e+03, 3.36566406e+04, 3.41557969e+04,
          3.62573594e+04, 7.33536406e+04, 1.03390727e+05, 4.02468516e+04,
          3.10365039e+04, 1.96290254e+04, 2.96205684e+04, 2.82011543e+04,
          3.34172617e+04, 8.60716406e+04, 2.72724781e+05, 5.04024258e+04,
          2.85503633e+04, 2.10978418e+04 ]
      - [ 6.01612976e+02, 3.58021698e+02, 6.15538391e+02, 1.24733850e+03,
          1.54488245e+03, 5.93155251e+01, 4.00545807e+02, 6.93349792e+02,
          1.28533240e+03, 6.25789246e+02, 1.33617627e+03, 2.18933789e+03,
          2.70501929e+03, 1.30449792e+03, 6.98897171e+01, 1.66230911e+02,
          9.07298438e+03, 1.08702471e+04, 1.43207041e+04, 1.15917422e+04,
          1.68621973e+04, 6.07814404e+03, 5.84520068e+03, 4.21863135e+03,
          4.85747217e+03, 4.91274658e+03, 6.54065186e+03, 9.60592578e+03,
          1.89683281e+04, 8.82988184e+03, 8.12644385e+03, 8.84241016e+03,
          22949., 9.68599219e+03, 6.04250195e+03, 2.08025410e+04,
          2.59011797e+04, 1.00309170e+04, 1.22671631e+04, 1.06294512e+04,
          2.21026855e+04, 1.04543018e+04, 1.26142129e+04, 1.16024355e+04,
          1.84993008e+04, 1.34204180e+04, 1.26008525e+04, 1.11093135e+04,
          1.38591016e+05, 1.39096281e+05, 1.39933469e+05, 1.61533250e+05,
          1.90889719e+05, 1.55046313e+05, 1.72216297e+05, 1.42808094e+05,
          1.24961102e+05, 1.22586422e+05, 1.40722281e+05, 1.69044141e+05,
          1.92768797e+05, 1.52311797e+05, 1.63154328e+05, 1.19343359e+05 ]
      - [ 1.56545520e+03, 1.04409900e+03, 8.95257080e+02, 4.24933258e+02,
          1.47883105e+03, 1.56575354e+03, 1.68970154e+03, 3.28176758e+03,
          1.89188477e+03, 5.19994324e+02, 5.61918152e+02, 7.26006104e+02,
          1.22168982e+03, 1.28780798e+03, 4.91184662e+02, 9.99866150e+02,
          2.30944531e+04, 1.27183193e+04, 1.56245107e+04, 1.06253730e+04,
          1.74444375e+04, 9.20716113e+03, 1.58867705e+04, 1.91523516e+04,
          1.89273457e+04, 1.39709395e+04, 1.02413672e+04, 8.45577148e+03,
          1.86801270e+04, 1.49135000e+04, 2.36502871e+04, 2.16695645e+04,
          3.13432500e+04, 9.19334375e+03, 6.05879004e+03, 8.06500342e+03,
          8.35333887e+03, 7.41098730e+03, 1.03380010e+04, 1.43739346e+04,
          2.98646680e+04, 1.94440527e+04, 2.44415625e+04, 2.87975898e+04,
          2.65956504e+04, 2.24273906e+04, 2.90254043e+04, 1.92480254e+04,
          2.66371500e+05, 1.76521453e+05, 1.15107797e+05, 1.17073859e+05,
          1.19171016e+05, 1.19459898e+05, 1.86557422e+05, 2.96442656e+05,
          2.46219141e+05, 1.35992344e+05, 9.51957266e+04, 9.44618516e+04,
          1.06481500e+05, 1.01007070e+05, 1.53225672e+05, 2.38966297e+05 ]
      - [ 1.20817078e+03, 4.52380920e+02, 1.96073035e+03, 1.00521357e+04,
          6.82628564e+03, 6.78036572e+03, 1.58942529e+03, 3.18480194e+02,
          8.38569580e+02, 3.88689880e+02, 1.20342871e+03, 4.88329437e+02,
          5.37031641e+03, 1.65449768e+03, 1.76206921e+03, 3.91389771e+02,
          1.48957148e+04, 1.34988096e+04, 2.80077754e+04, 3.49399023e+04,
          4.38056797e+04, 2.30857051e+04, 1.63451260e+04, 1.24215566e+04,
          2.34950273e+04, 2.54920371e+04, 3.78333711e+04, 2.71523574e+04,
          3.49515273e+04, 1.52565596e+04, 9.91349512e+03, 1.09932920e+04,
          6.24008828e+04, 3.33333125e+04, 1.92954336e+04, 1.25435635e+04,
          3.23973223e+04, 3.38211719e+04, 4.21493320e+04, 5.94031367e+04,
          6.53025508e+04, 2.49039531e+04, 9.34083301e+03, 8.23769727e+03,
          1.65154043e+04, 2.15297754e+04, 4.09775391e+04, 8.36220625e+04,
          3.61156688e+05, 2.98175813e+05, 2.29748797e+05, 2.20098359e+05,
          2.53689281e+05, 2.34147578e+05, 3.03827844e+05, 3.14419281e+05,
          3.87007188e+05, 2.94534938e+05, 2.19141891e+05, 2.07894969e+05,
          2.11426906e+05, 2.11011203e+05, 2.88550063e+05, 3.47124469e+05 ]
      - [ 1.97009430e+02, 5.91583740e+02, 1.31563770e+03, 5.54020264e+03,
          3.35643115e+03, 6.20103943e+02, 7.95336853e+02, 2.99976471e+02,
          6.66688843e+02, 5.76193115e+02, 3.48468994e+03, 1.25949688e+04,
          1.99975391e+04, 3.10498853e+03, 1.74953156e+02, 8.09795456e+01,
          5.17766094e+04, 2.14648027e+04, 1.30653086e+04, 2.68513496e+04,
          4.40062578e+04, 2.22010391e+04, 2.00434121e+04, 5.83040664e+04,
          4.26194219e+04, 2.00787734e+04, 1.75037070e+04, 2.77848164e+04,
          4.60473086e+04, 1.97335313e+04, 1.81446777e+04, 4.10922344e+04,
          3.20964863e+04, 1.63492764e+04, 1.54346934e+04, 3.47208281e+04,
          2.43083125e+04, 1.36110771e+04, 1.30738164e+04, 1.17260049e+04,
          3.41893047e+04, 3.20124609e+04, 4.46378789e+04, 1.01917953e+05,
          1.37469234e+05, 5.31719961e+04, 2.61432988e+04, 1.69319941e+04,
          4.12819375e+05, 2.87346344e+05, 5.37842125e+05, 3.60982656e+05,
          5.01694969e+05, 2.58080734e+05, 1.42142625e+05, 2.20634813e+05,
          4.71385125e+05, 2.79319344e+05, 4.65782344e+05, 3.96913438e+05,
          4.59132188e+05, 2.71505125e+05, 1.82307594e+05, 3.58952688e+05 ]
      - [ 2.11757553e+02, 4.24264030e+01, 4.84661255e+01, 9.48683357e+00,
          7.89736633e+01, 2.68328171e+01, 8.48528099e+00, 0.,
          3.92970581e+01, 3.03869705e+01, 0., 1.89736671e+01,
          1.22685959e+02, 9.80822525e+01, 1.98603897e+02, 1.02918091e+02,
          3.71995386e+03, 8.92073730e+03, 1.01057715e+04, 4.28489961e+04,
          8.90126719e+04, 2.28404375e+04, 1.04691641e+04, 9.15493066e+03,
          6.59872363e+03, 5.84039307e+03, 1.11163135e+04, 5.27516094e+04,
          1.10848773e+05, 3.10710273e+04, 8.19951953e+03, 4.73728467e+03,
          1.75598887e+04, 7.47759375e+03, 1.71506094e+04, 1.62356836e+04,
          1.92566426e+04, 6678., 3.92990210e+03, 1.63629199e+04,
          2.29623965e+04, 1.15545195e+04, 1.20734277e+04, 9.33384277e+03,
          9.35181836e+03, 3.84902710e+03, 7.86685364e+02, 3.41099829e+03,
          3.07178438e+05, 2.25343063e+05, 2.36599797e+05, 5.92406313e+05,
          6.21045250e+05, 1.86271734e+05, 1.82291219e+05, 2.65140531e+05,
          3.15410250e+05, 2.85594094e+05, 3.07490625e+05, 8.22162750e+05,
          5.75221250e+05, 2.58163469e+05, 2.05659531e+05, 3.51546406e+05 ]
      - [ 0., 0., 0., 0., 0., 0., 0., 0., 0., 0., 0., 0., 0., 0., 0., 0.,
          1.76360176e+04, 1.10640742e+04, 8.51635059e+03, 1.18947090e+04,
          1.71097891e+04, 1.04851953e+04, 1.31659209e+04, 1.33190986e+04,
          2.21528867e+04, 2.20360762e+04, 1.86648711e+04, 1.16286504e+04,
          2.01834570e+04, 1.55696611e+04, 1.90115898e+04, 1.64467051e+04,
          1.70359355e+04, 5.09255957e+03, 6.21576465e+03, 3.29253931e+03,
          3.74682593e+03, 3.99755762e+03, 6.17905029e+03, 5.46472363e+03,
          1.07569785e+04, 2.98398164e+04, 2.00068086e+04, 2.38436094e+04,
          2.50149043e+04, 1.74134355e+04, 1.48551367e+04, 1.20504766e+04,
          4.73976594e+05, 3.31616063e+05, 2.64164406e+05, 2.06789672e+05,
          1.85516469e+05, 1.92083078e+05, 2.86879531e+05, 364764.,
          4.60370813e+05, 4.64967031e+05, 3.10621031e+05, 2.48542125e+05,
          2.39733078e+05, 2.43225359e+05, 2.92396406e+05, 4.02347375e+05 ]
      - [ 2.08622119e+03, 6.59115356e+02, 6.19839355e+02, 4.19735840e+02,
          8.97869385e+02, 6.89716736e+02, 9.05451416e+02, 1.23666016e+03,
          6.72062402e+03, 3.35273047e+03, 3.37963843e+03, 4.68605811e+03,
          6.24054688e+03, 1.03166248e+03, 3.18738477e+03, 1.22577502e+03,
          2.60854395e+04, 1.45927363e+04, 1.77907051e+04, 4.41956406e+04,
          3.99122930e+04, 1.39992588e+04, 1.67844648e+04, 1.21316074e+04,
          8.73923535e+03, 6.17915527e+03, 3.96479199e+03, 3.17916914e+04,
          6.57597813e+04, 1.42141768e+04, 8.61742090e+03, 1.77140664e+04,
          5.22158164e+04, 1.09931250e+04, 9.62176855e+03, 8.35310352e+03,
          1.15880146e+04, 1.43918447e+04, 1.96439355e+04, 2.77389297e+04,
          3.93830742e+04, 2.63435059e+04, 2.55781816e+04, 4.06773555e+04,
          4.88141641e+04, 3.50097305e+04, 3.45083438e+04, 5.19382734e+04,
          6.93513438e+05, 2.67428125e+05, 2.58424484e+05, 633676.,
          6.19842750e+05, 2.56758719e+05, 2.62388625e+05, 9.49206063e+05,
          5.25842500e+05, 2.12104781e+05, 2.29643938e+05, 5.05155125e+05,
          5.25039188e+05, 2.26086328e+05, 2.35225078e+05, 9.06454188e+05 ]
      - [ 1.28797119e+03, 7.26302429e+02, 8.69114990e+02, 2.04808398e+03,
          3.04231274e+03, 1.01046405e+03, 1.08486914e+03, 8.27980713e+02,
          1.71374792e+03, 6.87056458e+02, 1.79064758e+02, 1.05664277e+04,
          2.25791348e+04, 4.01765381e+02, 3.25974426e+01, 2.55314697e+02,
          1.23712363e+04, 6.18355176e+03, 1.14160332e+04, 3.53202148e+04,
          5.45507383e+04, 1.53541182e+04, 2.73464746e+04, 7.62600938e+04,
          6.41382539e+04, 3.23147441e+04, 1.50105498e+04, 1.08305635e+04,
          2.16917129e+04, 9.16963672e+03, 1.44531523e+04, 1.61962178e+04,
          3.63077773e+04, 6.26545947e+03, 8.94045605e+03, 1.36344248e+04,
          1.19252207e+04, 9.00312598e+03, 1.05836475e+04, 1.38337725e+04,
          1.20641123e+04, 8.98081738e+03, 5.69322070e+03, 1.76923688e+05,
          1.92544563e+05, 9.18767090e+03, 8.51460059e+03, 1.72924844e+04,
          4.75680281e+05, 4.31391656e+05, 5.87942938e+05, 624950.,
          5.25859500e+05, 2.40327109e+05, 1.73064438e+05, 2.47932234e+05,
          3.76277375e+05, 4.08194219e+05, 3.89460875e+05, 4.33098719e+05,
          3.24425469e+05, 1.63159234e+05, 1.74174094e+05, 3.91092375e+05 ]
      - [ 0., 0., 0., 0., 0., 0., 0., 0., 0., 0., 0., 0., 0., 0., 0., 0.,
          1.08424158e+03, 1.60646973e+03, 2.06724243e+03, 1.22427324e+04,
          2.53411953e+04, 3.16505420e+03, 2.91925049e+03, 1.25035156e+03,
          2.02658948e+03, 2.47163110e+03, 2.46901831e+03, 2.45314648e+04,
          1.99381250e+04, 3.06123779e+03, 3.04938501e+03, 1.67009058e+03,
          0., 0., 0., 0., 0., 0., 0., 0., 0., 0., 0., 0., 0., 0., 0., 0.,
          2.14723984e+04, 2.40545352e+04, 2.94586836e+04, 1.15530508e+05,
          3.58730031e+05, 4.29684609e+04, 2.79762324e+04, 1.81684473e+04,
          3.37603906e+04, 4.11135586e+04, 5.63924688e+04, 1.85226656e+05,
          2.60521172e+05, 1.04311570e+05, 4.09516953e+04, 2.14080117e+04 ]
      - [ 8.27946716e+02, 1.53462814e+02, 6.45237122e+02, 5.04093213e+03,
          9.04214941e+03, 5.00859558e+02, 8.75246201e+01, 5.05039215e+01,
          5.15377014e+02, 4.34252396e+01, 4.03311920e+01, 7.85223312e+01,
          2.91774048e+02, 6.38968506e+01, 1.02976112e+02, 2.36289673e+01,
          1.07807510e+04, 8.60712793e+03, 6.10530664e+03, 1.08631875e+04,
          1.31939395e+04, 3.48728345e+03, 2.04018787e+03, 1.88691016e+03,
          2.49908447e+03, 4.13451660e+03, 6.32605664e+03, 1.13732324e+04,
          2.01154727e+04, 1.08708438e+04, 8.91649707e+03, 4.81257617e+03,
          5.72367627e+03, 1.77144238e+03, 5.41219678e+03, 6.64388281e+04,
          1.57097969e+05, 1.04398047e+04, 3.23166528e+03, 1.94999402e+03,
          6.49991357e+03, 1.34447888e+03, 1.51223315e+03, 2.64594165e+03,
          3.46739136e+03, 3.74150586e+03, 2.46153467e+03, 1.52110559e+03,
          4.55811758e+04, 3.90505117e+04, 3.99242031e+04, 5.59281641e+04,
          7.74816406e+04, 4.14527305e+04, 3.69896758e+04, 3.07938945e+04,
          4.99846836e+04, 6.72455781e+04, 7.75350859e+04, 1.14894063e+05,
          1.52013516e+05, 7.77038047e+04, 6.97460859e+04, 4.88295039e+04 ]
      - [ 3.20662506e+02, 1.15202812e+02, 1.29404236e+02, 9.06587677e+01,
          1.25706917e+02, 2.31093349e+01, 2.51686295e+02, 2.28035069e+01,
          1.41622772e+02, 6.56691650e+02, 7.83584045e+02, 1.21678701e+04,
          1.07208613e+04, 3.08479004e+03, 9.48378723e+02, 3.45612305e+02,
          4.72203320e+04, 2.58445879e+04, 1.25432012e+04, 2.43715059e+04,
          4.22132891e+04, 1.64891895e+04, 2.34738125e+04, 2.07751387e+04,
          2.63606406e+04, 2.95131074e+04, 1.78018984e+04, 4.15831289e+04,
          4.61036523e+04, 3.04095781e+04, 1.40644033e+04, 1.23821465e+04,
          1.93719641e+03, 9.65271057e+02, 1.15622852e+03, 2.77959595e+03,
          4.00463892e+03, 1.67274622e+03, 8.21428223e+02, 4.98722473e+02,
          2.89783887e+03, 5.77263379e+03, 9.43499902e+03, 4.04063281e+04,
          4.75126836e+04, 1.65380195e+04, 6.11176563e+03, 2.45082593e+03,
          4.78784313e+05, 4.52668406e+05, 4.28065938e+05, 3.67378438e+05,
          3.49468500e+05, 1.80018250e+05, 2.30683469e+05, 298669.,
          5.37569063e+05, 4.82301063e+05, 5.98485625e+05, 3.77452781e+05,
          4.95973688e+05, 2.52143188e+05, 2.98659688e+05, 3.67564094e+05 ]
      - [ 9.62110046e+02, 2.09046265e+03, 2.32426733e+03, 2.73962622e+03,
          3.12654883e+03, 2.94196704e+03, 4.13852246e+03, 5.78952148e+03,
          3.80637622e+03, 2.40249683e+03, 1.17289832e+03, 2.45155045e+02,
          1.48716992e+03, 2.95117462e+02, 3.18695618e+02, 4.57427338e+02,
          2.65477500e+04, 4.10273047e+04, 1.56215254e+04, 1.93255586e+04,
          3.60496367e+04, 2.76669375e+04, 2.90306230e+04, 2.64123730e+04,
          3.32342891e+04, 3.34083047e+04, 2.09863164e+04, 2.60735078e+04,
          3.33123789e+04, 1.85803496e+04, 2.60764844e+04, 2.45633262e+04,
          1.48433154e+04, 8.84310156e+03, 1.13519014e+04, 7.73355615e+03,
          7.25142822e+03, 4.33587646e+03, 6.96530078e+03, 9.69148730e+03,
          1.42255596e+04, 6.54538867e+03, 7.82783105e+03, 2.82876001e+03,
          3.11278442e+03, 4.27734326e+03, 3.64132983e+03, 5.27848633e+03,
          4.04716906e+05, 1.85519453e+05, 1.48209672e+05, 1.37045672e+05,
          1.58007594e+05, 1.55615172e+05, 1.97771516e+05, 2.91275281e+05,
          4.22616031e+05, 1.71107344e+05, 1.32020328e+05, 1.37196156e+05,
          1.22414688e+05, 1.02370195e+05, 1.36990156e+05, 2.01018047e+05 ]
      - [ 1.01621069e+03, 1.10896631e+03, 7.22475403e+02, 3.24519836e+02,
          6.14092773e+02, 5.01924927e+02, 4.60485413e+02, 5.79488586e+02,
          1.03818652e+03, 2.03498181e+03, 1.11874915e+03, 1.01695447e+03,
          2.71984961e+03, 1.26590295e+03, 1.40718591e+03, 1.57702844e+03,
          1.23008945e+04, 1.19664160e+04, 1.31253389e+04, 1.19247568e+04,
          2.14521426e+04, 1.46732393e+04, 1.33933428e+04, 1.07879688e+04,
          1.17263398e+04, 1.26283633e+04, 1.16315889e+04, 1.14438115e+04,
          1.99753164e+04, 1.23665166e+04, 1.40277100e+04, 1.21443643e+04,
          1.43934189e+04, 7.87114893e+03, 6.84762793e+03, 8.16372070e+03,
          1.07954844e+04, 1.17255000e+04, 1.14867881e+04, 9.58826660e+03,
          1.97130586e+04, 1.10448848e+04, 9.44736133e+03, 9.54630664e+03,
          1.21130498e+04, 1.26520342e+04, 1.36452490e+04, 1.33217305e+04,
          1.55201922e+05, 1.35475031e+05, 1.45981094e+05, 1.57924438e+05,
          2.11738750e+05, 1.59332203e+05, 1.59373266e+05, 1.54688969e+05,
          1.55527375e+05, 1.29188906e+05, 1.17986578e+05, 1.33335391e+05,
          1.57126078e+05, 1.51564078e+05, 1.61414094e+05, 1.50627453e+05 ]
      - [ 2.74224292e+03, 4.15735742e+03, 3.32062744e+03, 3.54337476e+03,
          7.16961035e+03, 7.68799438e+02, 1.40292542e+02, 4.33114502e+02,
          1.32201331e+03, 1.70549902e+03, 8.92823669e+02, 6.51424365e+03,
          6.40949951e+03, 1.09375464e+03, 3.43594971e+02, 1.05987793e+03,
          1.56309453e+04, 1.48504072e+04, 2.26155703e+04, 5.82001602e+04,
          8.36722031e+04, 2.96071426e+04, 1.53633467e+04, 7.74082715e+03,
          7.06305811e+03, 8.26081152e+03, 1.94656191e+04, 4.89951016e+04,
          7.39771875e+04, 2.83513965e+04, 2.36026992e+04, 1.76346074e+04,
          3.82476523e+04, 29479., 3.80801641e+04, 5.10141523e+04,
          5.63932734e+04, 4.12048359e+04, 2.76608672e+04, 2.08763750e+04,
          3.40305508e+04, 2.19906348e+04, 3.10108008e+04, 3.86737461e+04,
          3.30624883e+04, 2.40473320e+04, 2.62001563e+04, 1.90376719e+04,
          1.74500781e+05, 2.02558188e+05, 3.14367375e+05, 6.69686938e+05,
          7.52878375e+05, 4.65157781e+05, 2.90599813e+05, 2.07100516e+05,
          1.87171203e+05, 2.27440234e+05, 3.06423344e+05, 5.35220688e+05,
          6.88234313e+05, 4.91763281e+05, 2.90515563e+05, 1.87571563e+05 ]
      - [ 5.18155420e+03, 2.53469019e+03, 2.56604950e+02, 8.63017029e+02,
          1.48279668e+04, 5.03288379e+03, 1.03063831e+03, 3.88754004e+03,
          3.25178076e+03, 1.30583240e+03, 1.03454248e+03, 1.17411523e+03,
          1270., 4.48990356e+02, 2.61228052e+03, 5.07009180e+03,
          1.73333301e+04, 9.35649219e+03, 1.11115020e+04, 6.82812344e+04,
          4.94923281e+04, 1.67519512e+04, 1.80708047e+04, 5.73341797e+04,
          4.79143984e+04, 6.73202979e+03, 8.75604395e+03, 6.66497344e+04,
          5.93944609e+04, 5.06295996e+03, 1.33675830e+03, 3.91267456e+03,
          8.08788047e+04, 3.11278516e+04, 3.75814609e+04, 7.30288984e+04,
          9.28419531e+04, 2.64922695e+04, 1.93907754e+04, 7.00082109e+04,
          8.39522188e+04, 1.50528516e+04, 1.50845244e+04, 9.96774219e+03,
          9.27629980e+03, 9.62013379e+03, 1.39304805e+04, 6.24560352e+04,
          3.53725938e+05, 1.81167094e+05, 1.48024438e+05, 4.47545563e+05,
          3.62549594e+05, 3.01512563e+05, 4.30854375e+05, 4.37310531e+05,
          4.08382875e+05, 1.86189875e+05, 1.99585125e+05, 5.72625500e+05,
          5.18970219e+05, 2.60776109e+05, 3.12736750e+05, 5.18168406e+05 ]
      - [ 1.80280762e+03, 4.97669556e+02, 4.30991364e+01, 0., 94., 0.,
          2.82842708e+00, 0., 1.99999988e+00, 0., 0., 0., 2.11622772e+01,
          0., 1.62896759e+02, 3.99536560e+02, 8.39315039e+03,
          1.24511885e+04, 1.21662734e+04, 1.87978867e+04, 2.11068438e+04,
          6.09443359e+03, 3.04078027e+03, 3.30828906e+03, 4.35567480e+03,
          7.86423047e+03, 1.73758223e+04, 1.53478838e+04, 1.82905898e+04,
          6.01103320e+03, 8.18260986e+03, 7.67085986e+03, 1.98175000e+04,
          1.57356348e+04, 1.53543281e+04, 1.48598916e+04, 1.00367646e+04,
          8.54288867e+03, 8.72951758e+03, 1.19352236e+04, 2.23915078e+04,
          1.69293184e+04, 3.22514199e+04, 1.42919385e+04, 1.51532822e+04,
          7.17989453e+03, 5.52607568e+03, 9.02396777e+03, 407316.,
          2.19145656e+05, 2.09487969e+05, 6.20464563e+05, 5.21354938e+05,
          1.73468922e+05, 1.87953250e+05, 3.60343969e+05, 4.70107156e+05,
          2.65893781e+05, 2.15383047e+05, 4.13233031e+05, 5.50403813e+05,
          1.67632516e+05, 1.93238094e+05, 3.61552594e+05 ]
      - [ 3.20408234e+02, 8.59543457e+01, 6.88887863e+01, 2.94744987e+01,
          2.62176609e+01, 8.60232449e+00, 5.65685368e+00, 7.07106733e+00,
          1.31622772e+01, 1.41421347e+01, 7.21110249e+00, 1.84795551e+01,
          6.58330688e+02, 2.10210156e+03, 6.35828796e+02, 6.48474579e+01,
          4.27149414e+04, 2.54255957e+04, 9.10949121e+03, 2.76744258e+04,
          2.24299629e+04, 6.54689063e+03, 1.25428887e+04, 2.59749609e+04,
          1.98061406e+04, 2.30873184e+04, 1.66428633e+04, 2.71392031e+04,
          3.48050156e+04, 1.57635264e+04, 1.41638096e+04, 3.60211992e+04,
          4.86271719e+04, 7.47865332e+03, 3.94358911e+03, 5.15026025e+03,
          7.53484814e+03, 6.80873047e+03, 1.37300283e+04, 3.04159004e+04,
          6.30491445e+04, 4.72975117e+04, 2.87893340e+04, 1.57360146e+04,
          3.02572617e+04, 2.31303242e+04, 3.83310703e+04, 3.52090313e+04,
          3.36268031e+05, 2.12131766e+05, 1.91814984e+05, 5.57601063e+05,
          5.11636656e+05, 1.33548156e+05, 1.87359859e+05, 3.46156250e+05,
          4.45320906e+05, 2.64083656e+05, 1.62636578e+05, 5.28254813e+05,
          5.20865688e+05, 1.31793641e+05, 1.91791984e+05, 3.77169094e+05 ]
      - [ 6.55382141e+02, 2.69262848e+02, 3.78122681e+02, 3.14465485e+01,
          5.82570984e+02, 8.09594421e+01, 1.46393555e+02, 4.02170639e+01,
          3.41297211e+02, 1.26019299e+03, 6.54587326e+01, 5.33289490e+01,
          9.54095093e+02, 4.51582489e+02, 1.26672388e+03, 5.73154419e+02,
          2.50741602e+04, 1.79791328e+04, 1.44654707e+04, 2.08431934e+04,
          2.71494102e+04, 1.33328623e+04, 1.39922637e+04, 1.83252832e+04,
          2.93216641e+04, 3.59144297e+04, 2.11475098e+04, 2.08883359e+04,
          2.79729785e+04, 2.10287500e+04, 2.57954863e+04, 3.66758672e+04,
          8.70761523e+03, 8.87386816e+03, 5.35553955e+03, 3.19546924e+03,
          4.45834131e+03, 3.71383276e+03, 6.31354199e+03, 3.39869165e+03,
          5.35021094e+03, 9.25500684e+03, 1.17758379e+04, 4.85653662e+03,
          3.25543579e+03, 2.10995850e+03, 6.61926758e+03, 5.50233838e+03,
          2.96052969e+05, 2.09474734e+05, 1.65358313e+05, 1.44677859e+05,
          1.30360992e+05, 1.32595500e+05, 1.71060031e+05, 2.28113297e+05,
          2.91322875e+05, 2.72283500e+05, 234469., 2.23464469e+05,
          2.04545766e+05, 203745., 2.51340844e+05, 2.97753188e+05 ]
      - [ 6.10990181e+01, 2.10847168e+02, 4.55571594e+02, 5.68198120e+02,
          4.57392700e+02, 1.34164085e+01, 5.65685415e+00, 0., 0., 0., 0.,
          0., 0., 0., 0., 0., 9.71054297e+03, 1.17755117e+04,
          2.01241836e+04, 2.32744727e+04, 2.86508164e+04, 9.35682031e+03,
          1.13644092e+04, 9.42380078e+03, 7.62094434e+03, 6.42885156e+03,
          1.46476162e+04, 4.81038438e+04, 4.37275430e+04, 9.54995703e+03,
          8.10651611e+03, 9.22645410e+03, 2.99230896e+02, 4.23816315e+02,
          5.39166992e+02, 2.89101807e+03, 1.19118691e+04, 1.31639526e+03,
          6.00176331e+02, 2.64984344e+02, 3.70731018e+02, 5.74603615e+01,
          6.74219360e+01, 1.20764114e+02, 5.60033386e+02, 2.74753284e+01,
          1.97989883e+01, 1.45858517e+01, 1.75270234e+05, 1.52865359e+05,
          1.16197930e+05, 3.13665719e+05, 3.78003563e+05, 1.96203094e+05,
          1.88863656e+05, 1.93108281e+05, 2.53375406e+05, 2.14835266e+05,
          1.60632375e+05, 5.03405906e+05, 5.27284563e+05, 1.81297094e+05,
          2.56349344e+05, 2.47161688e+05 ]
      - [ 0., 0., 0., 0., 0., 0., 0., 0., 0., 0., 0., 0., 0., 0., 0., 0.,
          4.23319629e+03, 4.32649072e+03, 2.21875519e+02, 1.87333960e+03,
          7.94347229e+02, 5.53172607e+01, 1.50394727e+04, 5.82206719e+04,
          6.21655000e+04, 7.85525391e+03, 5.38652588e+03, 4.49973358e+02,
          8.55833252e+02, 7.99742615e+02, 2.40980347e+03, 1.68044751e+03,
          0., 0., 0., 0., 0., 0., 0., 0., 0., 0., 0., 0., 0., 0., 0., 0.,
          1.82662422e+05, 1.89145922e+05, 1.84249438e+05, 7.49309938e+05,
          8.73930313e+05, 2.02115641e+05, 1.56953375e+05, 1.52438938e+05,
          2.08949141e+05, 2.09075250e+05, 1.81242422e+05, 6.15609500e+05,
          867559., 2.78341875e+05, 2.49888328e+05, 1.98313031e+05 ]
      - [ 6.47655322e+03, 5.84936035e+02, 1.05148230e+03, 1.63552063e+03,
          1.00735834e+03, 6.24303467e+02, 7.04032715e+02, 1.91821240e+03,
          2.09631030e+03, 1.34947778e+03, 1.22933130e+03, 2.46260693e+03,
          2.64761499e+03, 2.15358887e+03, 2.02081238e+03, 4.08256128e+03,
          1.53596211e+04, 1.13462529e+04, 2.81676094e+04, 3.85890273e+04,
          3.04561582e+04, 1.41132070e+04, 2.77075605e+04, 5.83729102e+04,
          5.67881719e+04, 2.38113691e+04, 2.26852285e+04, 2.07398203e+04,
          2.13884238e+04, 9.89363086e+03, 1.02345381e+04, 1.32415254e+04,
          5.62922344e+04, 2.86756406e+04, 2.77135313e+04, 4.20910430e+04,
          3.86733477e+04, 2.96429258e+04, 2.72558184e+04, 3.96734063e+04,
          5.13794648e+04, 2.85781641e+04, 2.45588477e+04, 3.52314219e+04,
          2.89332852e+04, 3.06692461e+04, 3.01317559e+04, 3.73474766e+04,
          3.37191125e+05, 4.19657563e+05, 5.68533313e+05, 3.12738219e+05,
          2.83203031e+05, 1.85017141e+05, 1.82175594e+05, 2.23147516e+05,
          2.95902031e+05, 3.45463125e+05, 3.41481688e+05, 2.79099531e+05,
          3.09794594e+05, 1.78550031e+05, 2.07316859e+05, 2.59614359e+05 ]
      - [ 8.53907959e+02, 1.01091687e+03, 1.97497400e+03, 3.15870947e+03,
          3.65719409e+03, 1.26588150e+02, 5.83095121e+00, 6.32455540e+00,
          1.91999985e+02, 5.14324837e+01, 1.02956295e+01, 7.45376663e+01,
          7.82788467e+01, 1.14017534e+01, 8.62491150e+01, 1.69357376e+02,
          5.73481104e+03, 7.59893311e+03, 9.37741602e+03, 2.80392637e+04,
          2.79255254e+04, 7.22031201e+03, 3.32600366e+03, 4.71611914e+03,
          4.00414805e+04, 2.31485078e+04, 1.00325684e+04, 2.32991465e+04,
          3.06118574e+04, 1.02895225e+04, 5.30250586e+03, 4.81685938e+03,
          1.40306602e+04, 1.12240605e+04, 5.46500488e+03, 2.20909063e+04,
          2.65030293e+04, 1.12186064e+04, 1.75858691e+04, 6.42541016e+03,
          1.70254629e+04, 2.22048496e+04, 9.17785156e+03, 3.85745386e+03,
          4.37055615e+03, 7.74600195e+03, 2.45958438e+04, 1.42073320e+04,
          5.08200500e+05, 2.61238219e+05, 2.44981219e+05, 5.83336688e+05,
          4.30362594e+05, 1.68200328e+05, 2.32988859e+05, 4.95048344e+05,
          4.90122969e+05, 2.63397406e+05, 2.59832391e+05, 5.32388688e+05,
          5.18484938e+05, 2.17878844e+05, 2.20851563e+05, 4.50874313e+05 ]
      - [ 1.79064197e+03, 2.64196892e+01, 6.86219940e+01, 7.92035522e+01,
          3.98836029e+02, 4.31694244e+02, 5.25338074e+02, 1.92404163e+03,
          8.74320508e+03, 2.27963770e+03, 2.04917114e+03, 1.26932935e+03,
          1.01016742e+03, 0., 2.02484550e+01, 5.03542041e+03,
          2.14992109e+04, 1.55886846e+04, 9.32533887e+03, 8.82391211e+03,
          2.01384277e+04, 2.37897520e+04, 1.58843350e+04, 9.87855566e+03,
          1.70073438e+04, 1.10207578e+04, 1.35661963e+04, 1.65063340e+04,
          2.77329336e+04, 1.48537939e+04, 2.59076914e+04, 3.69707852e+04,
          2.88654688e+04, 9.45421777e+03, 1.19983750e+04, 2.12500234e+04,
          1.98046582e+04, 6.88607715e+03, 1.13417588e+04, 1.95536641e+04,
          4.61137617e+04, 1.88327129e+04, 1.99115957e+04, 1.78379277e+04,
          2.00274707e+04, 1.29007617e+04, 1.43593340e+04, 1.71982949e+04,
          1.84360141e+05, 1.79202719e+05, 2.51488297e+05, 5.35339875e+05,
          5.75183625e+05, 4.99165875e+05, 3.00675188e+05, 2.32133656e+05,
          2.44422328e+05, 2.29052797e+05, 2.97058156e+05, 4.05297500e+05,
          4.82328094e+05, 5.83633250e+05, 3.52036719e+05, 2.67380406e+05 ]
      - [ 1.12902112e+03, 2.66483154e+02, 9.60314713e+01, 1.46606628e+02,
          3.17473694e+02, 5.86949524e+02, 5.14523254e+02, 4.55756378e+02,
          1.28460522e+03, 3.62619690e+02, 2.83776154e+02, 5.12313690e+01,
          3.44914459e+02, 5.49873413e+02, 1.07872607e+03, 6.00552368e+02,
          3.73376680e+04, 1.63885664e+04, 6.70627783e+03, 1.23795117e+04,
          1.09835723e+04, 9.78106738e+03, 2.77128047e+04, 5.37192188e+04,
          5.23334375e+04, 2.17300586e+04, 1.49716201e+04, 1.40916533e+04,
          1.59915361e+04, 1.00470332e+04, 2.36144824e+04, 4.67796641e+04,
          6.15637939e+03, 4.25469775e+03, 1.93198096e+03, 2.09967261e+03,
          2.46688843e+03, 1.94213647e+03, 4.41394531e+03, 3.79884009e+03,
          5.84070166e+03, 2.24145239e+03, 1.72902051e+03, 1.01194766e+04,
          3.77301484e+04, 2.90838452e+03, 2.86943042e+03, 4.08442676e+03,
          2.75457813e+05, 1.70276969e+05, 2.46481656e+05, 3.89936719e+05,
          3.54228313e+05, 2.54413859e+05, 4.03102094e+05, 3.54314688e+05,
          324319., 1.58960234e+05, 3.08175125e+05, 4.23005219e+05,
          4.68213844e+05, 4.57147219e+05, 4.06091781e+05, 3.43056500e+05 ]
      - [ 2.28992188e+03, 1.92702588e+03, 2.75863831e+02, 1.17613419e+02,
          3.09361725e+02, 1.76157722e+01, 3.14472885e+01, 5.09901905e+00,
          7.16227722e+00, 0., 0., 0., 3.99999976e+00, 0., 0.,
          1.07070198e+02, 2.61839492e+04, 9.67507227e+03, 9.76536621e+03,
          2.03298926e+04, 3.04316602e+04, 1.23254697e+04, 1.31852588e+04,
          1.33464404e+04, 1.78560508e+04, 6.53925146e+03, 8.64713770e+03,
          1.87004453e+04, 1.77240410e+04, 6.56976025e+03, 1.56922031e+04,
          3.30639219e+04, 3.80098320e+04, 1.18127158e+04, 5.64236279e+03,
          1.00673086e+04, 3.52100781e+04, 2.33112871e+04, 1.70774902e+04,
          2.64669492e+04, 3.09149180e+04, 1.10429023e+04, 6.39600391e+03,
          9.24402148e+03, 1.79700059e+04, 1.50545254e+04, 1.43145166e+04,
          3.52203750e+04, 4.04691219e+05, 2.86927219e+05, 1.94071891e+05,
          5.19182656e+05, 5.37544813e+05, 189129., 1.91003781e+05,
          3.07429625e+05, 3.81201594e+05, 2.52036047e+05, 1.67482969e+05,
          4.95101875e+05, 5.04587844e+05, 1.86512906e+05, 1.70063891e+05,
          3.19353625e+05 ]
      - [ 1.34014905e+03, 9.59867310e+02, 5.02315826e+02, 6.89588623e+02,
          9.12889648e+02, 5.04135925e+02, 3.77354767e+02, 8.92045654e+02,
          5.36969116e+02, 1.07718164e+03, 7.40345703e+02, 5.51809326e+02,
          1.25218787e+03, 8.11772766e+02, 7.05541748e+02, 5.44429993e+02,
          2.41282676e+04, 1.73141816e+04, 1.36077734e+04, 1.75182207e+04,
          2.97548652e+04, 1.49969639e+04, 2.08912402e+04, 2.68493496e+04,
          2.42635039e+04, 1.74327754e+04, 1.97335684e+04, 1.88475938e+04,
